solver_type L2R_LR
nr_class 1
label 1
nr_feature 3236
bias -1
w
0.1836154898482127 
0.07159594533787939 
0.2008615014793698 
0.03502759309221152 
0.3034011381755201 
0.07069240515410595 
0.0001632516482030527 
0.07970168544277177 
0.05844937481980595 
0.3259084716202705 
0.08146814531943927 
0.09748766173483704 
0.06980561864259341 
0.02844451571600113 
0.04549541432358014 
0.1973021891974098 
0.09513926889590803 
0.209240306401205 
0.08193477745834472 
0.07791096971751271 
0.01144497292040508 
0.005265088212187507 
0.09623979914331807 
0.004829470489727651 
0.0133693518409379 
0.002006011835089418 
0.003619822060501078 
0.02807305463800654 
0.05040247304126073 
0.04676438545610196 
9.849789074386396e-06 
0.006179789784041627 
0.001686790273924505 
0.03474425018059821 
0.02014242240386538 
0.002812792253890483 
7.243075626582664e-05 
0.002105124633008994 
0.01440689021593098 
0.03757816399873804 
0.001665992220674587 
0.02391282789826375 
-5.726836047526452e-10 
0.0004391575564597534 
0.0001352468684979996 
0.000328415153061379 
0.03767694518517786 
4.641937983530487e-06 
6.694331747934493e-09 
1.284063482353139e-05 
0.0001239486858520615 
0.004502040746327097 
0.006086735815048298 
1.148428214109977e-05 
3.636906235046889e-05 
0.0009953087160454841 
4.895620388313087e-05 
0.001272290129831648 
-3.460676459226752e-06 
1.718625970873445e-05 
0.0001160135668378949 
2.40881720947165e-05 
-9.68129696045223e-10 
1.369374477126018e-05 
-6.637847431280501e-10 
3.760909073276967e-05 
-1.526994521945515e-10 
6.84574761189746e-07 
-3.494472476076349e-08 
0.0001909630532470046 
0.0001449169376131219 
1.785232623266111e-06 
-1.634686006598827e-09 
1.373535226725241e-06 
0.0003394159527698696 
1.511457442304614e-07 
-1.585338040419705e-09 
0.0007210207029672095 
3.926146489054938e-10 
4.404598277755993e-06 
0 
-2.574163949046684e-08 
0 
4.759123008676436e-05 
3.955678633177645e-05 
0 
0.0001354572226633052 
1.499766785686214e-09 
6.240106630786403e-06 
0.001577091299269603 
1.234490030857369e-07 
-4.921903152072829e-09 
-4.964860839466447e-10 
0 
1.82046691703182e-06 
8.581903045920914e-06 
4.014092321435016e-05 
2.01409150600397e-10 
1.925068114299484e-06 
1.078137709259436e-10 
-9.198511587052623e-09 
-1.659332371781478e-05 
3.942890933728943e-08 
-2.450233757666465e-09 
-1.203755908346317e-09 
-4.013296556694304e-10 
-8.732276886249299e-09 
0 
-3.06878809709892e-10 
7.511228613157368e-11 
-7.509442153867538e-09 
0.001837603610207397 
0 
-5.003138008241684e-08 
0 
0.5601686311779306 
0.1495290329271189 
0.4409261203388281 
1.171900053750175 
0.3413959386156104 
0.07294713891210472 
0.04107422484347328 
-1.187593729365987e-07 
0.04400549426745981 
0.000186796191013429 
0.0002525092209559518 
-1.63722889071596e-08 
-5.543695660861331e-09 
8.315469718773633e-05 
5.624686199103102e-07 
5.594852569202578e-09 
0.004688195935396855 
-1.696283635124464e-08 
-7.53300312125038e-09 
5.394143257284868e-09 
0.0003229228994685619 
3.34564299475279e-08 
0 
0.0005639445846051097 
5.340939623417068e-06 
-6.485213493202847e-09 
-1.323646734699526e-07 
0.008298082218550983 
0 
1.738677342620535e-06 
-1.168310088419753e-07 
0.0001068636038467932 
7.082358368476152e-10 
0.01240092208931753 
0.008874223858660648 
1.688709325600715e-07 
2.121774884920606e-05 
0.004061811567728942 
1.313576913092264e-05 
0.03378151354804895 
0.0001156570888612997 
0.0001891271023399247 
-5.070138878744686e-09 
0.0002410401538128167 
-6.80803743579985e-11 
8.25101871623208e-11 
5.128342598120362e-06 
-7.727417795195514e-08 
0.0001878281133357435 
0.01426903012104523 
0.005687920926609134 
1.584612998478951e-05 
2.689283123408954e-10 
0 
0.000680532621470493 
-5.551994247868519e-07 
3.276603489151154e-05 
1.185178012098245e-09 
6.019587151678474e-06 
1.821692404643914e-05 
0.008975630121735188 
4.741953268885418e-08 
-6.878312364491848e-07 
0.001491553316579398 
1.554895860324369e-06 
8.126153639826254e-05 
2.861362172777225e-05 
-5.254508054124854e-09 
6.623544998937459e-06 
2.582187102217192e-10 
0 
1.683336851962333e-06 
0.001465311129167758 
0 
0 
-5.152353038237769e-10 
0.0002423747029727104 
1.401587318290282e-06 
-2.00279207089351e-08 
-3.589294569108858e-09 
0 
0.0002111688475272813 
7.577667665693326e-05 
0 
0 
4.457859758026943e-07 
-3.637370422571452e-08 
-2.359405894709325e-06 
2.973755700486393e-05 
3.15503391088257e-05 
0.02216130417268604 
0.004144386391063887 
0.0001725584485746177 
8.559052913583528e-05 
-4.792161540922052e-08 
0 
0 
-5.193993621725656e-10 
0.004434834895582544 
1.847414972126909e-06 
0 
1.282715344373338e-06 
1.389251956758091e-10 
-1.254874761153748e-08 
1.699604469281203e-10 
2.961372900851403e-05 
0.001838100101603336 
9.272592504117504e-10 
7.184062623770537e-06 
-9.847737879469222e-09 
2.080923190018643e-06 
0.0003781762740590812 
-1.244456041477659e-09 
2.301616815881692e-05 
1.879127196372509e-07 
2.583986357617629e-05 
1.114380358960717e-05 
-5.084496093391947e-10 
0 
-9.457198316743989e-07 
0.099049200233399 
-1.024291314122019e-08 
0.008790037956138457 
0.0006168883732277918 
1.018755606320964e-09 
-6.242785625213912e-08 
0.001058902540804683 
-1.23707395663979e-07 
-3.726202169284353e-09 
5.949213655285499e-06 
0.0004052937662870266 
2.396518750730179e-05 
2.277246309216358e-06 
1.023055601110797e-07 
-3.858174693285168e-09 
0.001111466664038344 
-1.698698415988642e-06 
3.709196673458813e-07 
5.529834009665719e-10 
6.868446391677546e-10 
-1.529675093689532e-10 
0.002472531242427575 
3.097582192026549e-09 
7.579545348650144e-05 
1.223308991846477e-06 
0.07700177682197458 
0.06060318325314727 
3.519428964211668e-05 
0.021789855718516 
1.776230434680126e-07 
-1.434028699300237e-08 
-9.055886860482784e-07 
2.755614601919784e-06 
0.002124272703240697 
0.0006636059104351623 
1.784748286243069e-05 
-3.756347527674268e-10 
-2.751126192048053e-08 
0.0002509307707053139 
4.838242790137956e-08 
0 
0 
0.009733241299724671 
0.001231768092169487 
9.467005812191144e-06 
-7.628560308555641e-07 
5.583929272344706e-06 
0.0003895592612044248 
-7.093333916871263e-10 
-9.252554312336683e-09 
-1.471485779010918e-07 
0.03379574379317923 
-5.193993621725656e-10 
0.003748595690422912 
3.271177504490266e-08 
0.005145335232655242 
1.132079999967931e-06 
2.582187102217192e-10 
-6.990504296794415e-11 
0.03132395887805082 
0.0001572913191720701 
2.400946212240569e-05 
-5.937577952002892e-09 
3.93011582716596e-07 
-2.553885089656125e-08 
-1.522361539986023e-09 
0.07574852965144273 
2.545798465928267e-05 
-4.964028780395349e-07 
0.0006031357442983619 
5.666731806296662e-07 
-1.307400306430294e-09 
0.0005696581985567555 
-2.708143282664553e-08 
4.026448739232933e-05 
8.468440752245211e-06 
-1.602833944389932e-10 
1.142884309284649e-08 
0 
7.365995677457493e-06 
-1.433115065453022e-08 
0.00212500930481971 
0.001887057112861822 
-6.486488154959453e-10 
1.454920386285804e-07 
-1.49600982586804e-08 
1.857766681904146e-10 
7.996939640529278e-11 
1.661348389457533e-06 
8.364119900610898e-07 
-6.873740925809628e-09 
0 
-2.2189092051488e-07 
-8.62834595295272e-09 
-1.822883932041723e-09 
-3.798974210324077e-08 
0.0002326711940987674 
0.04160885120284801 
3.695078320934071e-05 
3.195370775362772e-06 
-6.527917781578285e-09 
4.388670166872723e-06 
3.250088906596643e-09 
-3.141962455664868e-09 
3.288527408287231e-08 
0.0294800053890657 
0.0003186947100592149 
0.005415836517510458 
6.828675850012605e-06 
-1.549656369468889e-10 
-2.150134933793615e-09 
0.00474467863432346 
0.00770143927402419 
-1.035864238196782e-09 
-1.27567062277325e-09 
9.314102094043055e-07 
0.003418354795902087 
2.559277948940714e-09 
-1.043404712077902e-08 
2.3742599018603e-06 
0 
-7.250137311892989e-07 
1.506318605341464e-09 
9.072624547957056e-05 
7.542670181819692e-05 
-7.689665490714708e-09 
-5.187025671201431e-09 
9.453279542631396e-05 
-1.567529345895757e-09 
-4.904436438396519e-08 
0.003524604282407669 
3.308597477167103e-05 
6.038131278512913e-06 
1.090867604675638e-06 
0.008710323767492331 
-2.927764417043058e-08 
0 
2.685814473604254e-07 
-3.208284516868052e-07 
0.01019341261313291 
2.712719954589243e-09 
-1.327388439230256e-07 
-1.044313064526845e-07 
0.001117509609182989 
0 
4.216644895210175e-07 
0.0006088829651398309 
2.246062636595721e-10 
-7.813222871759917e-08 
-6.576885888888683e-10 
-2.392444548185719e-08 
1.233782702716989e-05 
5.673880709327906e-05 
0.009952311670574292 
1.271387887113524e-08 
8.92330919772221e-08 
-1.476885677328176e-09 
-3.881824780213064e-08 
1.673313583216216e-06 
0 
-2.938943146441157e-08 
-3.276096075200249e-08 
0.0003401917217541449 
-1.684665578275703e-09 
-4.514869089727252e-07 
2.752218410162362e-07 
3.07744806012341e-05 
1.233055637685234e-05 
0.000572993964633845 
1.074037957096624e-05 
-1.450694510794258e-09 
-2.136948046214303e-07 
-3.118795793484713e-10 
0.02217043767519271 
5.869467919362035e-05 
2.129043699216929e-06 
-3.851006533910259e-09 
6.526487298893192e-06 
8.08166577455677e-10 
2.799539498663748e-10 
5.58709576757427e-05 
2.298105486196219e-09 
0.0001168908433629137 
0 
-1.836303516562624e-09 
-2.84287149314594e-09 
0.001839853522595706 
-4.72563089712103e-09 
4.162816302932179e-11 
-2.020787153107568e-08 
-3.874211811507239e-08 
6.789478059178119e-08 
0.003923738262686209 
-9.711546506797447e-08 
-2.467654262745033e-07 
0.06996662685075591 
-3.208284516868052e-07 
4.219851422082525e-10 
0.002225520975964356 
-2.842443073119728e-09 
2.489177075301655e-06 
0 
3.389238949574475e-08 
4.964103476423318e-07 
-7.882994118636681e-08 
-2.692124762712004e-09 
-1.845920337871917e-08 
-4.547765805357811e-09 
2.18286174751937e-05 
0.001951563144050391 
-5.767969613675592e-06 
-1.948356529806024e-09 
-2.119988649347228e-09 
-6.82225618203662e-06 
9.707397404955579e-06 
-2.311915292104376e-07 
-4.568902219637329e-08 
6.446452704551049e-06 
3.383211129843286e-10 
1.093380887868739e-06 
3.888319503672326e-06 
1.072365860572133e-08 
0 
-4.520417729465854e-09 
9.222229162793221e-06 
0 
-1.454573706774305e-08 
7.817147774534415e-06 
1.414723513390156e-07 
-3.373679640587852e-09 
9.313812700758559e-09 
2.762495745472624e-05 
-8.089543350038865e-09 
3.119194453290106e-05 
-4.906384870865921e-09 
-2.706426354302938e-07 
5.88056313594655e-08 
-1.75562754824914e-08 
4.876038794717434e-06 
4.983804069230317e-05 
9.834528950552748e-10 
0 
0.0009476100592175983 
9.789604799814722e-10 
-1.919548530036042e-07 
0.0003109108972089166 
1.830245989473704e-05 
5.898333239829401e-10 
1.40258086274363e-07 
2.96369381442883e-10 
0 
0.004232222931159788 
2.150913740851413e-06 
0.0003399567616549839 
-1.735394046130894e-08 
-9.105026487027099e-09 
0 
2.839632584924332e-07 
0.003236280608540512 
0 
8.977645793971933e-07 
0.0178283498004005 
-2.241508554792246e-06 
-1.156422183128979e-09 
-3.16753909183184e-10 
7.323786642205906e-05 
0 
1.069215022725731e-05 
0.0001596155955005458 
0.0002121372755331676 
3.100719741724068e-06 
0.0001295712825703706 
-4.91302823350428e-09 
0.002705228323571264 
1.408063926611615e-06 
0.002323087668101592 
-7.53300312125038e-09 
-2.714081785625335e-09 
2.879693644557101e-05 
-4.108036113111025e-08 
-5.153266275096274e-08 
1.108047332083006e-06 
4.625828464755463e-10 
-3.548826342965948e-08 
2.169644811253105e-05 
0.0002435322846194428 
0.000165493959007543 
0.0007974801721837095 
1.965374088675305e-06 
-2.319903858280952e-09 
9.086212636047344e-09 
-2.767900499665854e-09 
-2.95517848852216e-08 
0 
7.52786947603753e-10 
4.246267952065998e-09 
2.262741962455334e-07 
-2.422596577955208e-08 
4.586553092637929e-05 
5.410121873474275e-07 
-3.244909632996741e-08 
0.005415842372598044 
-1.332081503252838e-08 
0.0007969015518618937 
-1.083822344988809e-08 
0.001955866455382322 
1.966236735957956e-06 
1.989089830189247e-05 
-1.043404712077902e-08 
0.0002456292279973196 
0.00491735845650024 
2.527301685214317e-06 
-6.054406223398547e-10 
-1.855188369642294e-09 
1.927186496132416e-06 
-1.49555675295473e-08 
2.052452509439246e-06 
2.411002408441868e-10 
3.336930925954592e-05 
0.0001038623447203334 
-1.60332634959866e-09 
0.002461017609317768 
0.001182995591962229 
-2.914899728591802e-09 
1.515358475163465e-08 
2.580592142448804e-09 
0.0005903142810965338 
1.250820958530412e-05 
0.001578895940049692 
2.387936343418285e-06 
-2.546401069714558e-07 
7.526416833723245e-07 
-1.526994521945515e-10 
0.00424294193336341 
0 
-5.117430766728073e-06 
-7.050945760280402e-08 
0.001847010049335354 
0.009211905529363748 
-3.861285737078977e-09 
0.0004312734163867493 
-1.300207966857755e-08 
0 
-6.175733974379798e-08 
-6.984208588196452e-09 
2.106043861741726e-05 
-2.126919176025929e-06 
9.578992146682014e-11 
9.756291011554825e-08 
2.893943769611199e-07 
-3.170212656979558e-09 
8.721328460804473e-10 
0 
-8.593324253256771e-08 
1.328624198273914e-06 
0.0003735479398142631 
0.002693459215260584 
0 
1.100106176073901e-09 
0.003223363733645815 
1.137039248214394e-07 
-5.089742877048518e-09 
2.831096012237071e-08 
1.838878840979248e-05 
0 
5.229627901649521e-10 
2.647647343470496e-10 
0.001090756879710989 
-9.504901869186766e-09 
5.636625697805094e-09 
2.540578937689326e-06 
9.928894668284432e-12 
0 
0.001339604255858154 
-1.889168881541611e-09 
5.587982253237835e-06 
-2.052011642111948e-10 
-6.196302074764457e-09 
4.512119301359724e-05 
-4.904414377923205e-08 
0.0002914143328868326 
0.001854770376821789 
5.191958466248398e-10 
-1.137021919313553e-09 
2.227068309541377e-05 
9.890221454255053e-10 
-1.051399014987102e-09 
2.850285471247987e-08 
-1.228842578882499e-08 
3.317313140968277e-05 
-1.116468694243461e-10 
1.405881320810084e-06 
0.004614392136905981 
1.76994486994166e-06 
9.645151364648937e-11 
0.002514933453464303 
0.006759130795030285 
4.065153477087588e-06 
-4.59305967652034e-10 
0.0005484035979307693 
-4.502002658393314e-09 
-1.61335162727079e-09 
-1.540603986165742e-09 
-5.074697345328025e-10 
0 
0.005400288965275715 
-6.694555046305111e-08 
6.886396224964655e-05 
0.02067373431823015 
0.002740602174152731 
2.764896262139661e-08 
-2.717574056463476e-10 
5.848885159507003e-08 
5.764816037691487e-10 
0.001902687332719379 
0.01013377925907698 
-4.693678371754249e-09 
0.002514933453464303 
-2.615334165108909e-10 
1.547628893410867e-05 
-9.413152494092677e-10 
2.675999936408886e-08 
-3.922951001582964e-10 
-4.491511452632402e-10 
0.03288259751763845 
2.165496516865288e-05 
0.0003350748575366843 
2.305682216030673e-05 
-8.872116479931368e-09 
0 
0.0001505491487151532 
3.268772467814284e-05 
8.885960020511868e-11 
2.466083500125329e-08 
-5.618374007467305e-10 
0.04133776849201055 
1.994960307391016e-06 
1.871104561788539e-06 
8.953614120389373e-10 
0.02197455167562763 
0.0002358526087420516 
0.0003040036099163743 
-8.891303873984509e-10 
8.284856126348776e-07 
8.280719699163285e-10 
-2.299052821041964e-11 
-1.042021470930517e-10 
1.212513882088457e-05 
0.002476573948826213 
0.003565401336919695 
-4.931463273934903e-10 
1.408528932154353e-08 
0.002768129792603997 
2.350996067959041e-06 
0.01039631291730479 
0.02828299737972278 
5.244084894957965e-07 
6.460653679069616e-06 
-1.192565787370416e-07 
-6.183728413224183e-08 
0.0002804070771737428 
0.04178671964120932 
2.287509318383524e-07 
6.886745337864344e-06 
0.0005824446317286422 
1.296880763409864e-07 
3.83642872611593e-07 
-5.193993621725656e-10 
0.001471510914149653 
-1.212450184872404e-09 
9.772403484410421e-05 
3.471554715723732e-06 
0.007299741783966262 
-1.696022233259431e-09 
-9.3981879475413e-08 
-1.432834289872982e-08 
-1.21260867603615e-08 
-7.60201292298047e-09 
-4.255894355642617e-08 
-1.209471568052397e-08 
0.03462163767548161 
1.258334883392463e-05 
0 
0.0006646643925632115 
0 
1.146520928307638e-05 
0 
-4.933735872482422e-10 
-2.54987592356688e-09 
0.003698658849418427 
9.233054119339126e-08 
-6.175733974379798e-08 
0 
-8.960885479801113e-10 
0.00122355955891237 
0 
0.004628858041703706 
-7.174767252838679e-08 
0.0003574250056936057 
6.737369870520406e-06 
-8.509816918051477e-10 
-9.943652204708932e-10 
3.019313336475235e-07 
0.0001429872323260924 
-3.752801458824116e-09 
1.443478929939532e-05 
0 
1.213291586053907e-05 
7.064666359617495e-05 
0.003936092947448623 
8.683837833192705e-05 
6.187382788885711e-07 
1.961192849125308e-07 
-1.537922690171556e-08 
5.720384909011713e-07 
0 
-1.212450184872404e-09 
0.0084086230467034 
4.496355540763339e-07 
-3.788742115306356e-08 
-2.520598761835862e-08 
-2.070816301762196e-09 
3.018953677409101e-08 
-9.104152385335808e-08 
0.003195222086589829 
5.750608547014391e-06 
-2.72501453605341e-07 
0.007381906154796347 
8.70057584605851e-10 
0 
0 
-6.344987703925451e-10 
-1.950399387925217e-09 
0.002349406550279535 
0 
0.0004260826138398005 
0 
-8.634217253807393e-11 
-3.103593576777016e-08 
-3.851006533910259e-09 
2.191750967997468e-09 
-2.962105706139217e-07 
3.921465404621569e-09 
0.0008262918196805947 
1.030128065220695e-06 
0.00456321600488939 
0.0003519985533225302 
0 
0 
3.544748169128565e-08 
0.002190373309570899 
-3.782365561123621e-09 
0 
6.255567266885043e-08 
6.763350341863229e-07 
-2.197745802594342e-09 
2.950913117665599e-10 
-1.138803753204123e-08 
9.650712501733458e-06 
1.389687186075368e-05 
0 
3.199751849157124e-07 
0.1618854235750342 
0.001404682018626935 
-5.349348456191453e-09 
6.263729267475953e-07 
0.0003502291415190982 
-2.490495491984104e-07 
7.965458933894997e-09 
1.818770673141256e-06 
1.146935774908464e-05 
0.0124711206152391 
7.511228613157368e-11 
-1.165628750000047e-07 
2.548866053849523e-10 
1.76909822914236e-08 
-4.964860839466447e-10 
0 
7.038665442151501e-08 
0.0002527908669047708 
-6.043072873592929e-09 
1.705637888486072e-07 
0 
-7.713381566343138e-08 
-9.283943513239256e-09 
-9.312519697831747e-09 
0.009957617474925998 
-6.510701138140966e-08 
7.646713680676404e-10 
0 
5.735853569603933e-06 
1.571217172495965e-05 
-5.098417497999013e-09 
9.110144811762385e-06 
0.0001617458784849248 
0.1275932549320219 
-9.326837487129792e-09 
0.0005411347463335097 
0.001398403412952782 
-1.230454726193176e-07 
-2.299052821041964e-11 
-1.594054190187907e-10 
1.988071122889646e-09 
-6.735665940348933e-08 
4.746989943735369e-06 
0 
-8.123430397882405e-10 
4.176547372790743e-06 
0 
-6.961095934119745e-09 
7.490021388953572e-06 
0.0001010615199924933 
3.994424018546951e-07 
0.001363788578986755 
7.421136581537159e-06 
0.0001574486146871143 
0.0437771420014036 
9.65724987714764e-06 
-1.485535398190396e-08 
0.0148380487195311 
1.194730297498402e-06 
3.894506724336261e-05 
-3.122637679968114e-08 
1.75964028090487e-09 
4.879553737005708e-07 
0.03985828923621908 
2.491866124150201e-08 
-3.320484263678459e-08 
1.43373359443611e-05 
0.002533376063417343 
0.001297059735122639 
1.361629478848166e-10 
0 
-9.585109929692821e-08 
0 
0 
-5.33582338894335e-08 
0.002199301296699843 
3.683039852180021e-07 
0.002232294582426368 
-2.828664468147772e-09 
1.016790122066743e-05 
-4.48489082709644e-09 
6.989036909991549e-07 
-1.35868270345344e-10 
0.002111014022626586 
0 
5.557587140596534e-06 
0.0004481846105416158 
-6.442667500803343e-09 
0.002038103354880362 
2.40023515415923e-05 
9.154294899074659e-05 
8.349853834609543e-09 
-9.135580113151328e-09 
-6.085380119420561e-09 
-8.079613015966515e-08 
0 
-1.252069508455376e-08 
-1.109749334698917e-07 
0.0003185983543227288 
-6.104845816231126e-08 
2.270838480925862e-10 
0.0001214456130176329 
-5.785029670355408e-09 
2.341038706656386e-07 
2.571879057550367e-10 
1.523816234102645e-06 
-1.941808233040191e-09 
-1.462855404459177e-09 
7.644772639600431e-07 
-7.458780392597233e-09 
0 
-1.495235174503623e-09 
0.001211608256733669 
-1.567529345895757e-09 
1.928094202179113e-07 
0.0001595954830294755 
2.951633615897974e-10 
0.1455756302691248 
-1.45469097194249e-08 
-8.067337580207583e-08 
-1.298211072704873e-07 
0.0007649301443474057 
2.898008871948845e-05 
0.0001130188320820372 
0 
0.008801645542856987 
4.519601922010052e-08 
2.861884199661243e-10 
-2.944542228884057e-08 
9.416299057549856e-07 
0.0004597067605209764 
-6.477516201009933e-08 
0 
-1.716668491392767e-10 
0 
-8.144041255584289e-10 
0.0001867934296243212 
-5.616755259060767e-09 
2.139999769729596e-10 
-2.867154784733021e-08 
0 
0.0001855394125917135 
-3.956374251752635e-10 
-7.257735784311098e-06 
5.189762747412544e-06 
-3.009755068431404e-10 
-3.764138093949874e-09 
2.132473178927165e-06 
6.332243972628877e-09 
-2.304971097917013e-08 
-1.157499209533742e-08 
1.109596951092938e-06 
1.758623869357514e-05 
-8.337338135132053e-07 
-9.823976002081413e-09 
1.945666511859488e-07 
1.512494774856269e-05 
5.378844560281833e-05 
-1.450694510794258e-09 
0.01243358124916393 
1.240772654259174e-05 
0 
-2.017117139974583e-08 
1.373100756692424e-07 
0.02301614874716607 
-1.037163118148354e-07 
1.900804029698118e-08 
1.43373359443611e-05 
-9.241286890343543e-09 
-3.001919333319105e-10 
0.004809819616544665 
7.546642933607467e-05 
7.218707332162579e-05 
-3.475591020963924e-08 
4.219695835915156e-07 
7.180651630944719e-06 
3.857418354619799e-10 
-1.087602119332152e-09 
-2.04454065553759e-08 
-7.365518779840401e-10 
-1.245444574171296e-06 
1.627145220462466e-05 
-7.133234732666754e-09 
-1.945559893880452e-07 
0.0118197217166401 
0 
0.0002121363025644701 
0.06980663635140982 
3.709516576703087e-08 
0 
2.604208604778306e-09 
3.081950234631926e-05 
-3.937896728019897e-10 
-8.767948584314461e-11 
0 
-5.721506974723382e-08 
-3.144663080880718e-08 
-1.827776154391265e-10 
-2.789317349708405e-08 
-1.334879533691561e-08 
-6.461263223149727e-09 
-4.166245295564636e-10 
1.489466255890803e-07 
-1.296959914770881e-08 
0.0003957713069804317 
1.725881802031593e-06 
1.0266269167811e-07 
-8.856661472287783e-08 
0.004556473217356012 
2.201663582626194e-10 
1.894330963875369e-06 
0 
4.370032628190066e-08 
0.001656121533284863 
-2.572759669669071e-08 
2.572719154868683e-05 
0.000136122189524374 
0.001079307163994385 
0.01067170526107708 
9.421149087617644e-09 
-2.077882747100104e-10 
3.797257456698956e-05 
-7.652090184715479e-10 
2.714015245647343e-05 
0 
-2.653239350365485e-08 
2.271710936520771e-08 
0.004861071763836348 
6.746139276539371e-07 
0.000138279182177011 
-1.090306805130207e-08 
0 
0 
0.01630481692427431 
-4.728309975701536e-07 
-6.461263223149727e-09 
-9.438798926355986e-09 
-1.237792149399812e-06 
0 
-9.607830824606644e-07 
0.0120373830273991 
-3.009089228568175e-08 
-6.529805696025092e-09 
0 
8.571744035961727e-06 
-1.929161232643052e-10 
0.006710175413028789 
5.410121873474275e-07 
4.387214316909923e-07 
-7.105891905730559e-08 
8.894015108012321e-10 
0.0006503418391223569 
0 
3.039292762846311e-08 
0.0001084356685275427 
0.005390285301479527 
0.0007339231091394666 
9.509962595654332e-10 
3.264979205045339e-06 
1.005241263980874e-05 
1.215891767239086e-05 
0.0001048614381831896 
0.0001617568604120383 
1.158152730182461e-09 
0 
0.06110635652441072 
-6.344987703925451e-10 
-1.755307185995318e-08 
-2.940073596441425e-08 
0.02064750005209916 
-5.281230167852542e-10 
-1.771750087796194e-07 
2.085031873638345e-06 
2.846991608028638e-05 
-1.776253072168815e-08 
2.280879621021553e-05 
5.229627901649521e-10 
1.614489062986422e-10 
0.03269053379527649 
0.003766186562630416 
0.00324723929138229 
1.91485181091869e-05 
3.536715283824025e-06 
3.544090367570384e-05 
0 
-4.634194192104158e-08 
0.0002103747373822898 
1.64339636557994e-08 
1.248861932828974e-06 
0.00255513798910191 
4.300241994250926e-09 
2.27051585058809e-07 
0.003625910715926197 
0.0006428671596002899 
0 
3.107254126218172e-06 
2.163780822481118e-06 
-1.338118924110611e-07 
0.009983474099797321 
8.953614120389373e-10 
5.28355138592228e-08 
3.753794316195406e-06 
0 
-2.39624211679644e-10 
-1.326996791733802e-09 
1.958167788705128e-10 
-2.446801342482084e-09 
1.250193388321433e-10 
-1.575470100865356e-08 
1.268585399737933e-07 
9.795253348255803e-06 
6.491714536861989e-08 
7.748010214846873e-07 
-2.91883779650714e-09 
0.002181678143682501 
0.0007994991294917542 
-6.726467366698169e-09 
-9.31250613200517e-10 
1.145205173897955e-06 
1.673344504904654e-06 
-5.674135764297148e-10 
0.00958995880384924 
6.182414130767886e-06 
1.424915055045831e-08 
1.844472225336018e-05 
0 
0 
-1.51067192730419e-10 
4.346272046946984e-05 
-3.7753723302944e-06 
0.0002485290212999957 
2.11560524346028e-05 
1.879127196372509e-07 
5.38768872859136e-08 
-5.484809506809787e-08 
0.0003957948427321218 
2.225172353315032e-06 
0.006354184866538146 
2.336495345449975e-10 
0 
2.310808744244967e-06 
-4.135823911253805e-09 
-3.091752667983269e-10 
0.0001818704244201436 
1.329468721579051e-05 
1.187479063206393e-06 
-7.182084377717936e-09 
3.202826459272055e-10 
-1.003921643834304e-08 
1.072365860572133e-08 
4.685980036541852e-07 
0.009590003682786145 
-7.853500898323109e-08 
5.077846735381472e-06 
8.650044070595225e-08 
-4.004650801252749e-08 
7.540758045731861e-11 
0 
-1.04467745098652e-08 
6.504891167166641e-08 
0.0003713517183198775 
-3.208284516868052e-07 
0 
5.752562369777366e-09 
0 
1.283934513298282e-05 
-2.304971097917013e-08 
-4.620998974080062e-08 
0.001932163892852068 
-7.713381566343138e-08 
-9.943652204708932e-10 
-2.794510132163056e-09 
1.116106094031967e-07 
0 
8.739674356027147e-07 
0.0001146166556598069 
4.079696109412017e-07 
6.989036909991549e-07 
3.836490787751866e-08 
0 
9.654136616116772e-07 
-4.613204730876476e-09 
-7.759227819608328e-10 
6.693969439428023e-05 
5.260770902879104e-06 
3.104963683548581e-06 
7.398939735262803e-09 
-7.426056437006321e-09 
0.005027072346621084 
2.828387114099829e-06 
4.970825031089834e-06 
-1.237310463520235e-08 
-6.775996340283687e-09 
1.506241403178547e-07 
-1.67456103459755e-09 
-6.865918413713891e-09 
0.001502684891420688 
0.0004570764639195606 
-5.04604976625525e-08 
0.0007369248799174785 
-3.460537077731295e-09 
-7.556016631565359e-08 
-1.212450184872404e-09 
-1.450694510794258e-09 
1.320152036373826e-06 
1.080774554222976e-08 
2.044171473700307e-05 
9.086212636047344e-09 
2.329107741686463e-10 
-2.233257524377653e-07 
3.775566919001705e-06 
-1.637135750639013e-09 
1.444008348638392e-05 
-5.267469156820805e-08 
-1.733584535198302e-06 
7.859227801807351e-07 
4.681828411120214e-06 
-1.18866488095999e-09 
-3.395326333489749e-09 
0.0002261862578533079 
-7.737741406654774e-09 
4.610155987895859e-08 
4.640490688553229e-06 
2.131751921586289e-10 
2.969782007479783e-08 
0 
-2.027389027459631e-10 
0 
-2.845787500368017e-09 
0.0002594567932095411 
7.9503782025937e-06 
1.908933494468857e-07 
9.408042962450445e-09 
0 
5.416547971551604e-06 
1.768999400661395e-05 
6.886745337864344e-06 
0 
2.568136873822206e-10 
-2.036233605159257e-08 
-9.823807440012387e-08 
-7.833039071137619e-10 
-1.76790626685586e-09 
6.978317075210392e-06 
7.853290845782218e-08 
2.804005338300997e-06 
0.0003633122637912633 
0 
0.0002756273443808154 
0.003340033338043607 
1.229430120286859e-05 
-5.939847990816618e-08 
9.580957177177845e-08 
8.59125278546924e-06 
0.0004626074705268641 
0.0002128856704397183 
0.002367108933980825 
6.284454105729972e-05 
0.01645764075646354 
0.0003945298303036013 
0 
0.0004770426931253469 
0.002083261904445463 
-2.184072021722457e-08 
-2.749559183385462e-09 
0.0008122851702671044 
0 
-6.139681126020994e-10 
4.968023226331634e-10 
0 
-6.100651831428874e-10 
5.583929272344706e-06 
0.05208566812460497 
1.973118720310043e-10 
6.315171173670409e-08 
1.268868217727301e-08 
5.492611631982955e-10 
9.600728801493762e-07 
0 
0.001837524859039971 
2.243805567950139e-05 
-2.170620866494925e-08 
1.450311325965847e-06 
-6.890755166373783e-08 
0.000124686460620937 
-1.820052743121796e-08 
1.320239202383852e-05 
6.97723694284523e-05 
-7.997511404597064e-10 
3.209816462507088e-05 
0.0002015729391159158 
0.2350828554270032 
-2.039729628981501e-08 
-3.356713889718185e-08 
8.957902993722025e-10 
-5.83016743035869e-09 
-6.947684788207671e-10 
-7.26639937976057e-10 
3.00803337411354e-05 
3.930255608702892e-08 
0.0001702425044036868 
0.0001068325375464251 
1.161458543000949e-06 
-9.216271047223059e-08 
-2.092679113571843e-09 
-1.788319116019504e-06 
0.009439697960900731 
3.721938444988305e-08 
-4.950456340020094e-10 
4.139879731645915e-05 
5.907204529527726e-07 
1.830978892210344e-05 
5.59790676635186e-07 
-1.051399014987102e-09 
0 
1.545924268341846e-07 
0.004211850726066605 
0.0002171531045570172 
7.07877480941036e-07 
-1.409284929576008e-09 
2.759403254717356e-06 
-1.354245786893635e-09 
-1.845417848811547e-08 
-1.420749446584947e-09 
0.007495531673265308 
4.372582576031312e-10 
0 
0.00180740478081173 
1.150733996428305e-06 
7.546642933607467e-05 
1.309843317707754e-05 
-2.513084221132083e-10 
-9.248236652505238e-08 
0.02215449011366278 
3.361676553999436e-06 
2.125290713500757e-11 
-4.950456340020094e-10 
-4.711891473001552e-09 
-1.167473017673322e-08 
-8.840538162301667e-08 
-7.16338034630517e-09 
5.458395476067842e-10 
-1.645381442519173e-09 
1.097325011064952e-06 
-2.383734934262661e-09 
4.814239142547081e-10 
-1.594054190187907e-10 
6.487188856619363e-06 
0.003486274673903577 
0.003773672885662219 
4.838268284201629e-08 
2.437087075736309e-06 
-7.916202680389453e-08 
5.672536112671773e-08 
0 
6.044751826424627e-08 
1.146321392799961e-06 
0.01490766702825076 
0 
4.072053245060322e-05 
0.0001689693151465893 
-2.117716347369059e-08 
0.025755820291256 
4.760683650874337e-05 
-1.043404712077902e-08 
0.2350901238831515 
-3.081604129090112e-08 
1.567588548305072e-05 
0.0001210238687671735 
-5.155635665648943e-08 
8.061216903580257e-06 
4.626682878771141e-05 
-5.326442312943912e-10 
0 
7.889574184522437e-05 
7.351862602665147e-09 
1.445964363749775e-07 
0.002429617348530754 
0.06094392055270424 
0.0002795046376968223 
-3.373679640587852e-09 
0.001541438470299427 
0.005402872699908999 
-9.105026487027099e-09 
3.926146489054938e-10 
0 
9.188019350497496e-05 
-2.436195373541995e-09 
-9.922240572682256e-09 
-1.947627534591812e-08 
-7.867778081660769e-10 
2.6967799823003e-10 
1.238003516804387e-05 
1.559245164564925e-06 
-6.961095934119745e-09 
-3.133917147658148e-07 
0.003093281735621386 
-1.482803951045036e-08 
3.987315364582747e-05 
-3.435075995222703e-09 
1.43373359443611e-05 
0.0001318771271246767 
0 
0.001274696038905991 
1.214073287232254e-10 
8.18218248439729e-06 
0.001284113494860789 
1.452712315640907e-05 
4.625828464755463e-10 
1.421533134077513e-05 
4.496527379761108e-05 
1.631013149344686e-10 
0.8600300968036032 
0.7490386435550329 
0.4382217111918446 
0.9627486909363635 
1.376970738437022 
2.554492891382599 
0.2234482491825743 
0.6431289501132876 
0 
0.03141163617731471 
0.3438570877424838 
0.1788181666664576 
0.09780651865754093 
0.07209336950535364 
0.295002719435297 
0.2216485837223582 
0.1016120377310972 
0.001965310512629857 
0.1892848578563831 
0.0385608083579884 
0.05331951695862102 
0.01587558059130975 
0.001630730516995558 
0.1910315618014232 
0.09250638042730217 
0.001246260239826887 
0.01558351807266742 
0.05836377769441291 
0.07819031648208694 
0.004834802717175336 
0.05238834204228141 
0.09441675562216124 
0.08150525784915236 
0.01947485980078311 
0.03100558212238808 
0.0860391418129918 
0.07502968458063579 
0.02194750650433978 
0.02037070880607041 
0.01890374607158982 
0.04052146010441865 
0.001433467224190711 
0.0005307077516605258 
0.05442588059925768 
0.0009773472041026666 
0.03656441164258689 
0.01045868148093814 
0.03818731716826588 
0.003702222902847794 
5.878980509517003e-07 
5.288822513114968e-05 
0.0001464171670906988 
0.0007289934145609295 
0.001240274084376992 
0.001681432772010827 
5.160563058010862e-06 
0.001090734193584151 
1.055679761848006e-05 
0.0004115033097357941 
2.534591484964194e-05 
-3.28611354364768e-08 
-1.253946096382395e-08 
-8.628827246162464e-10 
2.066933125783461e-05 
0.01199614635260987 
0.006689845143489389 
0.03535240973433713 
0.001852869151628382 
0.002730813540986746 
0.004601479874483541 
0.01294326787209938 
0.1192437850901862 
0.01083591751546192 
0.02350480618998936 
0.03233621949741778 
0.01427928760696185 
0.01587460850856403 
0.002060657437846722 
0.001379277384676085 
0.04913872896588055 
0.01461148341021328 
0.003360629176030336 
0.02229867837196605 
0.137398758653382 
0.004602926320060569 
0.02131211314478617 
0.01971569938350649 
0.0002565120531047314 
0.009595990130442326 
0.1782607735306415 
0.004336171990913392 
0.2366729273319458 
0.01563604684056757 
0.2541284089452029 
0.0008292392779946181 
0.0671090379397993 
0.001624111822503312 
0.04176698789269918 
0.002197945215927046 
0.007100697500594182 
0.009426873059970557 
0.005975185870600462 
0.004758810777597136 
0.007061410045530903 
0.003944713809119556 
0.01286319586772351 
0.006084946651425845 
0.002715864046096629 
0.03293522174398981 
0.0007700583568452427 
0.0158632904747643 
0.005124605915007405 
3.767418719701842e-05 
0.005009850114488099 
0.002196084845351345 
0.008308679476424378 
0.01433146768591341 
0.02634037831531467 
0.04313032375159527 
0.01305722566637532 
0.06471836485641923 
0.0349556828920505 
0.04498805933750593 
0.006761378566274547 
0.006020913805620749 
0.00121330212310059 
0.00370830460307918 
0.005895363711622709 
0.001195452915835816 
0.001223642679958328 
0.000167540805693934 
0.002933614666054641 
0.009802005156811879 
0.003343903191181313 
0.006998316803489648 
0.007190378402525847 
0.008827937404462239 
0.0001673371641661213 
0.3085534854884782 
0.006983159512522182 
0.0004734318862106096 
0.09207164913371407 
0.02493408884530678 
0.009640851141018311 
0.4586504274329785 
0.009074590315544967 
0.01124499855548117 
0.003253701294208469 
6.964409930549236e-05 
0.01168919571189619 
0.02564399384795308 
0.005740909082357176 
0.01022422577083769 
0.03490517280760026 
0.00815439969717761 
0.01283985253334542 
0.07837224321285752 
0.0621900855096757 
0.0008591328996926912 
0.004266749163094815 
0.03274114964481379 
0.003539085905813984 
0.02131677313389579 
0.008332741375899684 
0.03105427122812388 
0.004392248056333572 
0.001898369563202053 
0.004730843939294693 
0.006014236983611963 
0.04705625689305259 
0.000426044609373822 
0.007441571079669068 
0.03734997149847435 
0.0006255240673743211 
0.005678160991438664 
0.01518376514238738 
0.002608357981611325 
0.006793149207984745 
0.1325185159673177 
0.0009004710405251781 
0.001901942047627517 
0.004170442121472237 
0.01136518996602093 
0.002638020345884403 
0.004905079565472766 
0.006936470774851401 
0.1269921506845623 
0.003635217445223579 
1.118033995490882e-05 
0.004221058915034907 
0.009589400247143678 
0.005262779428983332 
0.1627529357822558 
0.02233637348195003 
0.08017235494378457 
0.003022806385204033 
0.02408665134258402 
0.02416887003257224 
4.813099595658172e-06 
8.750538595392732e-05 
0.0009029483007352592 
0.001134430533484846 
0.00476054949107473 
0.004980839600979652 
0.02355871206008098 
0.01716727340263889 
0.05791054883064751 
0.02166093622820215 
0.02739997875040507 
0.005481523843925281 
0.01437448154662838 
0.0008086194690739026 
0.000269846874364672 
0.001440933404633106 
2.504778380495861e-06 
0.06152974571382117 
0.002597505046222425 
0.02720135764448354 
0.01509354348273296 
0.002347584430524788 
0.001286055623249663 
0.001834157716961126 
0.02427109875666587 
0.008075250318124182 
1.134383434467593e-05 
0.002892785040146592 
0.002960368478199911 
0.00634817319621056 
0.007163057886696748 
0.0004583060397080118 
0.003106230339579753 
0.0001005001604447907 
0.02403346366005071 
0.0005995880326865653 
0.02440740639922294 
0.04644959367098202 
0.002311423116343158 
5.10059694334477e-05 
0.002383770682339964 
0.00278933012875599 
0.002617525962026504 
0.005751701434043263 
0.02964610401695828 
0.01218190302092794 
0.03753578745527521 
0.002629424591249361 
0.003929198117915327 
0.05762859653653197 
0.01080458654122726 
0.004468016725197818 
0.003412123303978702 
0.008755547305238139 
0.6176764015070557 
0.06995005402969046 
0.01322832896197212 
0.006120610042597448 
0.001953050512094306 
0.01095876242715141 
0.001717094714384456 
0.002067648445027938 
0.005373147058480491 
0.001889205260084632 
0.07700102300202055 
0.004812450252242865 
0.00847982461869441 
0.2135132727156676 
0.07714446655165486 
0.002614832077986481 
0.004080848136393568 
0.00153935720191911 
0.002797004879932267 
0.00819475036742078 
0.008262925911905377 
0.02132705060417167 
0.002052859806044583 
0.001056711068728727 
0.0008105866398783884 
0.1933309890108177 
0.007266966269809764 
0.006659673725901246 
0.007468784177181953 
7.420526742743352e-06 
0.004135014251707238 
0.01080950082443582 
0.00106943900795507 
0.001866704921745898 
0.005691210881206151 
0.0001660731888772407 
0.00723172179901119 
0.0007143328804583439 
0.02765934865359897 
0.008847039139896502 
0.0103378005239088 
0.006204587190867984 
0.02112197837670815 
0.04016118570161162 
0.008217503819633064 
0.005912089434196594 
0.0607190918725731 
0.008666588162951672 
0.01083791240228607 
0.0008645046693996345 
0.001278454762659096 
0.02114184146005534 
0.02668289079803418 
0.001395746126777688 
0.1906027452490992 
0.005110939601155036 
2.03599014587928e-05 
0.01665337521911769 
0.0008090112808865636 
0.000938742348812145 
0.001720998562731034 
0.01359071216029189 
0.001722625676801582 
0.009161619693808094 
0.00175640434191458 
0.04216395268411313 
0.03904095743776653 
0.006954544170864389 
0.004089317127752516 
0.04153860317870598 
0.03391713132135357 
0.004341145088279596 
0.1793412153208581 
0.02222537776595203 
0.002258990349031664 
0.01375567150443439 
0.03183584585520936 
0.01381292311434018 
0.01705809226691324 
0.07586423279312152 
0.008976876028755515 
0.006879342931310484 
0.2396279164885123 
0.0009650922010272548 
3.087905291342748e-06 
0.006994576483421509 
0.03015004144630601 
0.008125170891800749 
0.002607078029870955 
0.003536119577723126 
0.006157059500706717 
0.0006199278962874592 
0.007254475546965155 
0.02887722754916594 
0.007953656824448926 
0.03209740672096978 
0.00844106878616209 
1.847336406473105e-05 
0.003617975272286418 
0.001710347019546558 
0.008694356788635667 
0.009370915065731561 
0.04697897281660486 
0.009414374137425095 
0.03702271889212387 
0.01616563646601868 
0.002827664279730955 
0.03334721640298136 
0.01475497147498083 
0.00177777311302934 
0.01216626020486472 
0.002002942916026791 
0.03077288197718776 
0.01732059643828943 
0.002233970133034336 
0.002968321005266446 
0.01194531580543052 
0.01453869136568305 
0.0004131205343624587 
0.00554984598559206 
0.006237387591124532 
0.007307950416480147 
0.03541125610630012 
0.0003213383162173073 
0.003089881027404943 
0.01512660081871995 
0.008011533926141769 
0.05097856069103598 
0.0008263681013485814 
0.002250079542903257 
0.002717298563852178 
9.239446953865417e-05 
0.001295511158922426 
0.002710599895969113 
0.01766312914776979 
0.1366798634794545 
0.01340105066047812 
0.005302131413418567 
0.009987580644558146 
0.01308230794061453 
0.03908907806079659 
0.00804307498319011 
0.007969559133372143 
0.0005199073937426818 
0.01348744526253644 
0.000459717308390873 
0.00187104255001347 
0.003421861756123495 
0.01017801356465011 
0.001382388659516998 
0.1699894681370344 
0.001390195855628889 
0.002233928071456387 
0.001162593450189917 
0.005662894096195185 
0.006737994632978968 
0.000310747103532438 
0.0593375758235091 
0.001333187742772923 
0.002567064874580651 
0.03213541092481698 
0.003856135764494813 
0.0007272439894567302 
0.02143236490108449 
0.001722260336174195 
0.1087843449240457 
0.0008571717723896798 
0.005219721379819368 
0.06285989115002115 
0.2403913032407706 
0.007350328082145734 
0.002497392430717693 
0.0007823691576525504 
0.0009873276621034275 
0.002796995037028049 
0.01782020176513873 
0.002749227491160341 
0.004781909738991215 
0.1126728114528868 
0.003501819305335808 
0.01869165313665809 
0.004132609645814315 
0.0004004782738599904 
0.03563900227524721 
0.0002518783496358093 
0.3029338747548529 
0.008410083711221386 
0.002656065924416355 
0.003590786041000033 
0.07022633988846765 
0.03035226891905678 
0.003746114159196314 
0.03727968351637677 
0.001506336244869374 
0.03321996348087367 
0.0204236551882022 
0.004305856633957388 
0.0007235914682283661 
0.006409175800654901 
0.000205595037138638 
0.007125517249845883 
0.008942097892216267 
0.07334471119046586 
0.003454084422926954 
0.02086374584270077 
0.02136037686174743 
0.006134718895451859 
0.1159624429447273 
0.01295843470562922 
0.006566893996575759 
0.05388595010458285 
0.02633226169535514 
0.0009068030916635382 
0.03963371704182303 
0.02883212990911834 
0.02360332441431222 
0.003552074535631564 
0.004222958598393231 
0.05610113677259763 
0.1685240687553156 
0.004731121329605151 
0.03008472556359683 
0.05213825043164488 
0.002474241265782705 
0.07471424391615826 
0.08728934544038661 
0.1606308857571998 
0.0168278118786793 
0.05350875510494907 
0.0372551949176398 
0.02098944914423148 
0.2079561011956122 
0.0008900187486334337 
0.1853088823999492 
0.01309211862713806 
0.01814827886105163 
0.001891628377428342 
0.005624675855380858 
0.007545303767172047 
0.02406126337203116 
0.005350261756050502 
0.1062009754881804 
0.002352254329283988 
0.001468172980006107 
0.005580380879109705 
0.004295341904125392 
0.02466677128371566 
0.08923846801647574 
0.01565626031350386 
0.002126256784298845 
0.01032582796302759 
0.008641192889609187 
0.005473078382292818 
0.005497491210148859 
0.009677833566979634 
0.0108019431647041 
0.06639008616569769 
0.0096435425562748 
0.06889016018164755 
0.05427460396113602 
0.1780257540050825 
0.2585220735392922 
0.08907821715188334 
0.09626830836635795 
0.005099516770802556 
0.003930551704593358 
0.004437782800104219 
0.002385988224934969 
0.03393647969469509 
0.01223106575332855 
0.00778439774502348 
0.02147200260075506 
0.002474820973652582 
0.0008765756348673811 
0.001532594211516509 
0.01298827258530051 
0.01406824065483541 
0.003427027055504428 
0.006071011686522012 
0.04072697867415921 
0.00819459328363552 
0.04639002997430731 
0.001454365543847126 
0.04209993806495892 
0.00147353322871647 
0.013227816351621 
0.003262150599493082 
0.001851063483007922 
0.03935233200366592 
0.0005857511568333189 
0.0009342975008523729 
0.001354129267353373 
0.005398749428082748 
0.01045900798793665 
0.01107002642801148 
0.04715608859159177 
0.008591353786770336 
0.008447772032771628 
0.09693721227649905 
0.01504269793645605 
0.01267019889375895 
0.0005738369449162213 
0.0009461041043953164 
0.19109185742542 
0.02453607284965773 
0.01904284731672718 
0.0006124907460205426 
0.0007516190388489907 
0.0151565544695725 
0.02031171362370913 
0.02330598143277042 
0.008336856721389495 
0.0009053524929697537 
0.01181166179148759 
0.0002152171519660897 
0.002755631493890881 
0.007454290173829313 
0.005501220743604542 
0.08440258795404337 
9.935890312728447e-06 
0.02165652218862479 
0.01358524268763902 
0.002074367570494511 
0.001739184723674353 
0.01991089903428607 
0.00291132039783141 
0.0002544490533827363 
0.004777951109499408 
0.1283573659764262 
0.0006114545464449256 
0.004512947226130374 
0.0220511119508358 
0.009625844729266345 
0.02808487113713364 
0.04767015761578328 
0.09375076038940866 
0.007640961449891942 
0.02654313999397232 
0.1040869900072133 
0.0006741342777397915 
0.0115828171370323 
0.04296342248722423 
0.001858015556191419 
0.04823625440797484 
0.002243351495242154 
0.03209138433843535 
0.08195296169889767 
0.01480124582286707 
0.006992044689457712 
0.00258166111486547 
0.06219410205730327 
0.03342941400491706 
0.00238453258113575 
0.002824949406478307 
0.0007877978277662279 
0.007908388537947781 
0.004202076438429593 
0.02499760095459223 
0.1848901214145724 
0.007815257833740208 
0.02686274866459955 
0.1669160978537949 
0.016179897136847 
0.00898131984736465 
0.003892282336542863 
0.0008061797148070561 
0.001274321247739026 
0.002723954473020729 
0.008914360575974247 
0.004707023763304972 
0.05746639106462544 
0.0009992696690845056 
0.004773327178164049 
0.0003474780153997186 
0.006407775166109204 
0.05731094506352866 
0.004291884805001712 
7.45644541108634e-05 
0.01466468102713042 
0.07115979240004751 
0.02729375120657117 
0.00477792904585297 
0.3487348207785239 
0.004721573711706876 
0.002011931705831519 
7.989322689825819e-06 
0.004224202862149874 
0.001418789149841749 
0.005601376128391094 
0.1209194320502616 
0.005286283017188004 
0.06346403839412466 
0.008434433911974935 
0.01183316145899942 
0.02165893893365169 
0.000824502314134929 
0.004640128900873265 
0.01317367243837056 
0.0004524436222030101 
0.1195592501289876 
0.0087603769822276 
0.001487205721253655 
0.02897067005120389 
0.0001145765455052017 
0.07321499306801577 
0.001515362208527607 
0.003090683593720139 
0.001387202031762761 
0.06433197155897256 
0.02347355243991757 
0.01402914392112296 
0.01298903201608703 
0.01765064320190955 
0.0128437472221923 
0.07296791554187823 
0.005211832141702668 
0.002003600038778167 
0.01788942682992234 
0.04878972459250918 
0.03005906987945024 
0.002588259265928911 
0.005734210391585619 
0.01586647890603874 
0.0006769297947515164 
0.005645587723189686 
0.0001508947233459358 
0.000592122737633604 
0.00928724964141241 
0.01548373042762793 
0.02301800506783794 
0.001877523913781894 
0.06807636081212733 
0.0001955745301395663 
0.0003043471320527099 
0.01104012843597611 
0.007726986224448616 
0.004166656265955854 
0.006884591210752686 
0.0001225199960259274 
0.0323463080979605 
0.01969505476163527 
0.002170949228700726 
0.004776945856132805 
0.006985418080707549 
0.1308165750507205 
0.07911394789057831 
0.02493148569343987 
0.003348127151899351 
0.0006293609657224079 
0.1354761110566439 
0.006676445540994672 
0.04543795329222478 
0.00838496925621891 
0.04100468421222166 
0.002952329936667576 
0.03650889941607163 
0.01018405700407806 
0.001355419404227731 
0.006142090909939443 
0.05161498212511328 
0.01380066631128869 
0.008679272921608267 
0.007745038006938724 
0.002055564472144205 
0.005188460959699175 
0.01111129967210128 
0.02534423200913381 
0.003207733620874041 
0.001416451362085902 
0.02513950296855693 
0.04575018994827536 
0.1735172062871763 
0.3107688224459517 
0.06192447581549052 
0.006728854033040708 
0.33602344636536 
0.01805349739440958 
0.007261971833404835 
3.417141260269553e-05 
0.1150310107697009 
0.002657141085371417 
0.0359826741539504 
0.07580982411160832 
0.0004487766466122665 
0.001056538680877694 
0.004753347657405836 
0.002306886485079342 
0.007318243668993919 
0.009190939099614825 
0.06772920564651554 
0.1304707871663392 
0.002938024146923126 
0.007115162883152141 
0.006712220806404256 
0.006425698671115926 
0.02790798819273413 
0.001377834747354909 
0.00509919895967626 
0.00702039790405208 
3.326476497124302e-05 
0.007570869840051831 
0.0001757851406832099 
0.001381588793039858 
0.001026283718159627 
0.03534950896559619 
0.01191273105242537 
0.115264039196742 
0.02540203650257852 
0.00269698085421868 
0.0131540580865026 
0.019650017247366 
0.0003307528794869696 
0.003481450915913621 
0.01093362938406055 
0.01181853147288071 
0.004685679784965781 
0.001349870485415022 
0.06608989301040787 
0.02892073950779662 
0.003012623581409961 
0.001174664328162181 
0.1899691743069344 
0.001862637338365996 
0.0001481426804608414 
0.0005872226880462889 
0.0001131039443043585 
0.004619691537156898 
0.003433707857960749 
0.01595617445408417 
0.0255923735733122 
0.003195046868530572 
0.00670939922443387 
0.02532736816616667 
0.05155267241249159 
0.003659840534643019 
0.01836568344360996 
0.0003723724163670855 
0.009063810131329824 
0.02651019276186807 
0.07587514556113012 
0.0004314658207991285 
0.007122705485869421 
0.02119079827263349 
0.004908588591308206 
0.002609976167869893 
0.02289433765051954 
0.005370074888934879 
0.0686860828293927 
0.01422024809175944 
0.004590227030405449 
0.03186388098889974 
0.0001521313363923216 
0.002795621075455453 
0.003590500243039535 
0.02853669352490374 
0.05100793110149641 
0.00238328424385593 
0.009018177799376871 
0.01515515156061499 
0.003992506998297831 
0.01252449225482992 
0.00373082767069501 
0.0003787500487864911 
0.008173593476722687 
0.002816814125499236 
0.0046128902726069 
0.00635921438692476 
0.004421803634055138 
0.0002321663192061012 
0.00619837596045821 
0.115091935514229 
0.007712353308478023 
0.0007168351460125614 
0.1553331233515144 
0.01284584492605349 
0.05163632756607837 
0.0003848816859489592 
0.03459427267786793 
0.0001802315970883845 
0.008489311073371692 
0.003874713650548176 
0.0007870318686448257 
0.01729699065205178 
0.01291514512303798 
0.1056190107569834 
0.1827045174389422 
0.002967935617234224 
0.03824088608034396 
0.04733259148469374 
0.002955740862337685 
0.0863169788115344 
0.0008799345278000103 
0.005535949631350348 
0.3111618401686022 
0.003701496110712384 
0.0270417815218371 
0.004402807418510206 
0.01662208428261288 
0.01430964358272922 
0.0004370240108054129 
0.002790287260226481 
0.05860588419486139 
0.01158604117509223 
0.01528793065240872 
0.000250450626720229 
4.161416917406721e-05 
0.06012662492672202 
0.001635836564047492 
0.006747611371838639 
0.0001494605710282853 
0.006913770707254943 
0.01335262786427525 
0.03401588130825401 
0.00165229048131624 
0.003578893596271486 
0.02210155201276102 
0.005525568086307077 
0.0003157233759416125 
0.02230817614705404 
0.01384618290110697 
0.03959199442499245 
0.08299077895979512 
0.01097602580443028 
0.03735912800681068 
0.01159993831609528 
2.389389072610108e-05 
0.04744511968743427 
0.02554118379038057 
0.006054514258389026 
0.005527103075009362 
0.001002960676398219 
0.005199429408791079 
0.005083260501597344 
0.004036017519906823 
0.0104191859930444 
0.001940777616417298 
0.0009758509587510756 
0.05563065755116372 
0.01044407302276105 
0.01641471960796686 
0.00238190083200727 
0.005369333791902597 
0.009247628777650006 
0.001691504890167856 
0.01099987367583606 
0.03966323949490294 
0.005392266335160981 
0.00667303719464015 
1.063200510796245e-07 
0.006464847376157057 
0.07947824752297289 
0.001218611235270208 
0.0004391694060745957 
0.01251785333433559 
0.007315126691864494 
0.02041660957835279 
0.004059620977627776 
0.01006087222948465 
0.005417076420365119 
0.04921650291634877 
0.05897985049415749 
0.1238363905045384 
0.0004122370895364761 
0.03626955964397625 
0.006966235811091282 
0.01188402745079251 
0.01759553029813738 
0.3238674743716023 
0.003168303981491743 
0.001112915959941725 
0.0164126244734705 
0.02718954461071254 
0.0006912585163485643 
0.0116286773688419 
0.0004062906177482051 
0.0006154620025877566 
8.902295884030067e-05 
0.002407538655785557 
0.001721240675944013 
0.002255203827886171 
0.001172264166158091 
0.001876794951730023 
0.0002145636433276853 
0.0006449687680169823 
0.05047073552551439 
0.06137796187228248 
0.01542317186082868 
0.003071378055761633 
0.03896936959865955 
0.05083135065025168 
0.004206828888763459 
0.01513515969871975 
0.006906161475053813 
0.003776506031671756 
0.007665010003619908 
0.001616412843579523 
0.006921306161786382 
0.002450314770190592 
0.001247416660071509 
0.007845673959206307 
0.009160802228589029 
0.02672449081456778 
0.00288277684751604 
0.00903866520408303 
0.1566607871660838 
0.001840038332305026 
0.0003139885682369868 
0.0007633705318386955 
0.001635183864116855 
0.004964936423705275 
0.00112763932905743 
0.02446702135815805 
0.07587623088229058 
0.009240511769843852 
0.01367299009082911 
0.02125444298637936 
0.004254551009440066 
0.02374789450695085 
0.009031034465324423 
0.01300033531972399 
6.682285958600336e-05 
0.006492770610921012 
0.009889774802507086 
0.002487496867196671 
0.06352325100488806 
0.001104216512349934 
0.002604009802299348 
0.02533753501895418 
0.00333935326670524 
0.03758476730769584 
0.1757516943546779 
0.003689024312011847 
0.000881860582102533 
0.001212692515075168 
0.00735199244790091 
0.01970967350757225 
0.0004992966236322275 
0.004985610675083924 
0.00207993825101941 
0.03744208220861651 
0.4151788527983797 
0.01686979203719177 
0.03952022360978674 
0.0003037054099844907 
0.001280966587530063 
0.008698540193936573 
0.03145889410811274 
0.004695673337684626 
0.01585895876441562 
0.03347845760913438 
0.1007313248146716 
0.01280232042601601 
0.0005862233138947483 
0.05278670285211936 
0.02856283970081532 
0.01880528179189172 
0.03801998187581038 
0.01735153325420303 
0.04034104359621819 
1.676620660467459e-05 
0.01274598471393256 
0.005653716314566562 
0.02111561938544429 
0.3319801632567381 
0.02540012265837776 
0.003394192470847445 
0.01117252851221202 
0.0679998640515837 
0.04239354941610157 
0.003763861446186666 
0.01268666313735949 
0.005413324288520679 
0.005614660319686939 
0.004870209699827556 
0.02132953018306387 
0.003609074520428783 
0.03616440027936245 
0.0003542422791488597 
0.001366519127229489 
0.0001129352567702584 
0.01115513392766904 
0.007899604764011782 
0.02752333668231127 
0.003122257771015015 
0.001277167637997649 
0.002453532432201772 
0.004779619700411623 
0.002007164539791359 
0.003755798693255005 
0.005519017645408988 
0.01584823240914277 
0.001398396649511413 
0.01414717012495676 
0.003481634953784564 
0.00871949062951681 
0.0006981460182289562 
0.01975093073220411 
0.01880099843791923 
0.01187550282922759 
0.05846711002063017 
0.002520818436740762 
0.006197199397559616 
0.01249729507789956 
0.0182384005273694 
0.00772960174744178 
0.003278192923233909 
6.599794699627241e-05 
0.003245914771051955 
0.001719715908719071 
0.004368810219631965 
0.00112973644665951 
0.001693048029149912 
0.002574285382043537 
0.0008328572875820721 
0.006216144371709144 
0.005518010530589194 
0.0006676639293376224 
0.01617394907967142 
0.002046952011471922 
0.01686852412620284 
0.004766575686254857 
0.1090403589112465 
0.008075288548647754 
0.06540442422161354 
0.002305768340990194 
0.004953119095201239 
0.0008851270221892597 
0.01571061233132136 
0.009052531469404304 
0.00133864147018284 
0.0006370954937286158 
0.01766428246017858 
0.004325202325600847 
0.007063828670476056 
0.0329236737786465 
0.01321080729331211 
0.01004318160568229 
0.007632673852770324 
0.001306581224843245 
2.203127663337803e-05 
0.05842696884193541 
0.003866909076355 
0.03216201270594619 
0.006464614151330971 
0.01621192272925339 
0.002860683072325732 
0.0001492823720924448 
0.008996949784574659 
0.00703856978762685 
0.001350677055844294 
0.003702873071970833 
0.03518627967274438 
0.001675032794138896 
0.001959778899241259 
0.01366802010703578 
0.102152651416554 
0.008862411126519842 
0.005401450169322071 
0.003205644676178143 
0.03973225734501534 
0.02089345363679215 
0.01113790875069512 
0.007525605527864911 
0.04562256996455723 
0.01447498289100381 
0.002648512778435596 
0.003610404039261343 
0.001747753718790394 
0.01505232002744334 
0.0889774610700176 
0.02100722886909278 
0.0008186205603471971 
0.004782117279172531 
0.01308884894517049 
0.0005305194019641375 
0.001456849792650959 
0.004871354214184978 
0.003422972115737644 
0.002499556498789909 
0.1181035183223375 
0.002906620926071333 
0.0006155692889562666 
0.003706715424996433 
0.002527915934768578 
0.00103464889915943 
0.0007755078225189914 
0.03300604747199884 
0.01461337825116327 
0.001167211801290678 
0.0006246459256865103 
0.04601246197848982 
0.02477283332639704 
0.02078448581155123 
0.07346913372201123 
0.0288879318039102 
0.009124231744244682 
0.07046301025275752 
0.01817883011830116 
0.0218466618840242 
0.06930496892987917 
0.01755517301205965 
0.02319673564564166 
0.003485814364716402 
0.001205918184322679 
0.08272672029300854 
0.03788665702592407 
0.01619301608952502 
0.005037634589068505 
0.01632862795951945 
0.001355034942852539 
0.0021438720925456 
0.05468090200989262 
0.01579561877092063 
0.001955365220518967 
2.719153915625745e-05 
0.004344617931318527 
0.009739095899992794 
0.03605335395304559 
0.07349397260134881 
0.007559031117935307 
0.001967598982988762 
0.001784311727106909 
0.00250144821640635 
0.01118968334456373 
0.003312304642420209 
0.00357496629320617 
0.05166914932298629 
0.0102580556708562 
0.0008086784152497947 
0.01339566522428832 
4.205892540403577e-05 
0.04579056526055066 
0.0001638476023644623 
0.0372369941777583 
0.04896119867442648 
0.009883223531778108 
0.004733303558814387 
0.004583889478750737 
0.01149621473803448 
0.05381287050873846 
0.001001097356033121 
0.04035305169096448 
0.006908851850235513 
0.0006535360981316994 
0.005112693164301981 
0.00597664634470086 
0.5294012922793004 
0.02738927272439395 
0.08787056475982029 
0.00199694399466665 
0.008690729964888308 
0.00342615296625086 
0.009406706762858734 
0.01493299422851864 
0.001070817020499067 
0.009134950556898667 
0.01147624315333534 
0.0009487344874519977 
0.0003559344370460301 
0.02731525944362819 
0.02617123284218438 
2.999786931728535e-05 
0.007793124917345813 
0.002016619257346292 
0.00172415046541355 
0.0007519119414795619 
0.1154642443983345 
0.01658532657018433 
0.004574660745124928 
0.0007129574324117583 
0.005187181935527503 
0.007483861794055842 
0.01252176165607519 
0.001707914452558258 
0.02704070320636397 
0.03494368108699453 
0.09277249253365379 
0.006945827182610641 
0.006188388199063738 
0.007649326521872734 
0.0002444190075312217 
0.008786530166860013 
0.0318719607054553 
0.008932458590730262 
0.04195509737990695 
0.004401263683562863 
0.01545608449644113 
0.2799245680316318 
0.01838040790916503 
0.01163794337892551 
0.001482090750853236 
0.004363802121352255 
0.002320091958781929 
0.01193712962859804 
0.1700883042588839 
0.001829745804827079 
0.05732826842520537 
0.001390173902419897 
0.004792027332070007 
2.016603571988675e-05 
0.0007950806583613155 
0.2509185995243773 
0.02496372298404644 
0.01716320830760386 
0.004637308551925744 
0.04544784245449966 
0.004761155139184274 
0.3327017487886096 
0.01599354562526258 
5.942256299246507e-07 
0.0009731808915803638 
0.008006478441640747 
0.004824654614043209 
0.000733812781221635 
0.001221775427197418 
0.0002025720295663526 
0.01247140857259728 
0.0002450445398999038 
3.668395138589478e-08 
0.001153440805770906 
3.55170914838522e-05 
4.103982907009053e-05 
0.01233781378865733 
0.00615177280773168 
0.01008352995772967 
0.000538245386299667 
0.01908066350740012 
0.02798599482699062 
0.0005701061387330996 
0.1287107725667008 
0.003698293661328408 
0.02318368212306485 
0.002804158777132615 
0.004952823938385811 
0.01853778375565135 
0.001573429173604782 
0.001487576276478337 
0.01360686169033571 
0.198908597834424 
0.0364596357278953 
0.02321513357880978 
0.07984720374439411 
0.005726895082902124 
0.01611942818212998 
0.003184637933716781 
0.009679421468098529 
0.008279808651597048 
0.04090864451570812 
0.0006672899003856372 
0.0007026137558944147 
0.04114816573184433 
0.002960032718097842 
2.564332212004306e-05 
0.05154806762876048 
0.005018266016319908 
0.01222392227463539 
0.006778738271254678 
0.02147237436406856 
0.01945302000620335 
0.0001184682304203829 
0.003163022151495955 
0.01063026466380508 
0.02394089323653632 
0.1019085683819556 
0.05027354747369138 
0.003865421112790696 
0.0005396587708356585 
0.05150562156575907 
0.03210980156909954 
0.06851329020262291 
0.03691045077517924 
0.004815212864765068 
0.001393077669734745 
0.00279659463334448 
0.00467481652669186 
0.0003090522429811951 
0.03704341857667327 
0.01217801206116233 
0.003066464517547153 
0.002202380829316424 
0.0145385493385405 
0.003827231734580261 
0.5859096762528455 
0.005961216151440516 
0.01829348946949253 
0.002365903401701479 
0.05661025292682814 
0.2704294677754168 
0.008393612269177874 
0.2349721177999557 
0.01594270834714451 
0.01800692770328165 
0.004057846512314887 
0.004911099588308588 
0.002425744458884835 
0.04193125087978103 
0.001310492410856036 
0.01939362031233195 
0.002685746633767156 
0.0398148166095074 
0.0005508891413533492 
0.01535846574112569 
0.01104847923983564 
0.06172667764486023 
0.004309728224774689 
0.006056909599991148 
0.04158805103045716 
0.02511691747209881 
0.003725989264536453 
0.008224040259739475 
0.0007535432039951681 
0.1064434259966993 
0.06831237612251501 
0.006806510290488565 
0.00441992538912781 
0.001844273387209845 
0.004657003213439285 
0.005481359262347428 
0.0001196841731200694 
0.0009707256335788098 
0.002692481142734508 
0.003939606973002972 
0.03633871565824993 
0.001116058872049877 
0.004237569007882123 
0.004000698346184505 
0.02655974501979578 
0.001165571189497561 
0.004536726024372649 
0.003332301462877621 
0.09786885035495685 
0.0009483497375816405 
0.02656674036162806 
0.008409936122005754 
0.003468987744922215 
0.04533006292173176 
0.0297404241417142 
0.006562640353128213 
0.0103787107803155 
0.009303038646443591 
0.002767982781714381 
0.02270978538134964 
0.005036319303540255 
0.003640629320957673 
0.006556851901364834 
0.15902569858923 
0.01475922078990932 
0.01181735308318502 
0.08991654367327404 
0.001518804065459655 
0.005694975096480946 
1.351533652024845e-06 
0.03368791864004622 
0.002384735266243102 
0.01340130803083512 
0.0002265021742141398 
0.001622226502367161 
0.00655421286591188 
0.01947012966994171 
0.02052952260680277 
0.0001724619106854937 
0.003985523988543534 
0.0007943547417732362 
0.04539523130700073 
0.006355109325331746 
0.001428178806537993 
0.0052189286651661 
0.003485717390515167 
0.02704131727298674 
0.001237699246455767 
0.02022197142836787 
0.01398638553156734 
0.008627667252611246 
1.476052016791513e-05 
0.003355369127463004 
0.00409627622356876 
0.04221276732820856 
0.04941712773041524 
0.0072635047634217 
0.001946630705029816 
0.0005306544546745358 
0.1131867498709923 
0.006960528828021653 
0.0728792334978923 
0.01004882051000497 
0.003115982416443726 
0.009741961917016283 
0.02489622273617202 
0.3712353935211694 
0.00245747204179476 
0.01079931686162694 
0.01828228377947278 
0.01455510242792119 
0.2141482006323566 
0.002989737051978507 
0.02813130316836073 
0.02020912231487266 
0.009185767544759972 
0.1738145834447082 
0.0003069721451566165 
0.01557322574055748 
0.006140977823264193 
0.004335368252354647 
0.001295110040096336 
0.01019853874226328 
0.08184328876831604 
0.0004984943135769221 
0.007172544943702313 
0.1460686317463275 
0.1047435068448979 
0.004367254154101219 
0.006078806445516716 
0.0004882107626567384 
0.000773636446832809 
0.07670914159594132 
0.004552062755501528 
0.09679630397546907 
0.005176567982284962 
0.01324556207534201 
0.1131623306871788 
0.007779289569781867 
0.02041212552245406 
0.01623194509930132 
0.05956651491564133 
0.00302222697416748 
0.04178258103040826 
0.0240594514964821 
0.005804941008561436 
0.0001194599461898331 
0.01062075657777018 
0.0148063753020429 
0.0001953925524452743 
0.004616392684448396 
0.002476559434478969 
0.04614940998691536 
0.0003286048188509358 
0.04196144380949274 
0.0005819404704170993 
0.003291616213890231 
0.0009134997103918289 
0.06479295577803879 
0.002352261931516998 
0.003333545411648748 
0.006840219114925716 
0.00388483653850061 
0.001091136939711432 
1.354335912004497e-05 
0.001323284425232909 
0.02156770881703709 
0.02418579983726871 
0.01701056201026429 
0.05100040945711926 
0.001995055374097764 
0.01162573449850322 
0.006945726709391371 
0.002175055744985464 
0.001568225545682192 
0.003899637569283161 
0.006492621306841218 
0.1097191671349205 
0.007584846750407039 
0.0203085973988079 
0.05421846298881543 
0.0030749918471035 
0.001327251042536481 
0.01443315264722829 
0.06939769588344512 
0.167001580860884 
0.02870442128939423 
0.1036847099589522 
0.001641420997219846 
0.01819063893100861 
0.01483714334674505 
0.002685912490507807 
0.01130854603331397 
5.625031854075793e-05 
0.02130557997589264 
0.0008096064738085321 
0.0005267044842145743 
2.313372340861653e-05 
0.003506441188440538 
0.01226504690469547 
0.009174947466147989 
0.01076948130447158 
0.02510934522247267 
0.002677151537386622 
0.05475845566857612 
0.003488804887010118 
0.1171254052229231 
0.006873741295548619 
0.07821962545656426 
0.002370778123356762 
0.09463083859303845 
0.01158731883639553 
0.01909178830249732 
0.06342567839493517 
0.02622095299498758 
0.0315339862007606 
0.004818406080126578 
0.01104594747925326 
0.0001056732313912638 
0.00969149498489915 
0.009951378105204777 
0.04553544424940089 
0.003007141560805999 
0.03002299852157821 
0.00942916547279647 
0.002810864317514446 
0.04915407817773847 
0.006701036385101279 
0.0009570920964437206 
0.007178020649318146 
0.06416244224518185 
0.05165711756595276 
0.07504395093197742 
0.03814036442796936 
0.08508114498918258 
0.150385322127381 
0.007670980559591227 
0.007215631515145689 
0.001805298078595189 
0.002252896278519372 
0.0008604280040803767 
0.01476709409476262 
0.0179990640719566 
0.02695660294080161 
0.008122620111539545 
0.006413793204794363 
0.004202784312148288 
0.001137633013561922 
0.02631275276059765 
0.003077409397726024 
0.002615652730479131 
0.006533028791902461 
0.0003840811952301907 
0.001326734356299991 
0.004650150790659625 
0.05870930761224565 
0.009453199310846904 
0.03995305378656686 
0.03409869300712951 
0.02625855317666365 
0.00661903373456264 
0.007403793786300627 
0.002925455348883299 
0.001654841955475442 
0.01378591789148196 
0.0149745791830557 
0.003873706120595421 
0.03326223101616909 
0.003250649220310703 
0.00135845589545979 
0.0008124412988764685 
0.06187730493183395 
0.002753879873200906 
0.003991170492805281 
0.07618068699567339 
0.02133134228839421 
0.00106946841569976 
0.006994564607752174 
0.001796731620144777 
1.9248288322693e-05 
0.007893271912416641 
0.01111295912335204 
0.0007002761118638204 
0.004653176271213292 
0.1067430773777365 
0.008615755090972996 
0.0005734416402601648 
0.004410972450459116 
0.008416008167328284 
0.01613049319145791 
0.0007244154171782665 
0.0007835898043116518 
0.00485789466965474 
0.001901433001850221 
0.001734087250176937 
0.01434607376972249 
0.001020981663995116 
0.0007663490292780655 
0.0001815251354894541 
0.01301550774398262 
0.0002339854441528067 
9.741395933709465e-05 
0.001977556096297992 
0.005448958149536472 
0.004214731175112755 
0.1086743840239679 
0.06052806807307785 
0.004272376421634142 
0.001010437333629051 
0.0155846958225054 
-1.733782534857509e-08 
0.01148420406583689 
0.01506548634429484 
0.0545861274484692 
0.007068592236517774 
0.0005576487099501721 
0.2024427746956656 
0.01216819359678992 
0.03004994740988591 
0.05881243346235963 
0.003578786732027391 
0.1783610753255851 
0.05759158883961983 
0.001226085515404642 
0.002778473667290387 
0.0004594735424661571 
0.007860232478869879 
0.004916791281500419 
0.01048591217217822 
0.004066987930514729 
0.02149599941223411 
0.009739218536049881 
0.01107500958903633 
0.0002269633172670261 
0.006845823298974319 
0.171863891669762 
0.302127383166789 
0.01566533671384261 
0.00279443958751229 
0.1982057170021307 
0.002808545568793755 
0.0006134504710867071 
0.009714046173935433 
-7.982143653776363e-10 
0.003217721822817796 
0.05936474748684661 
0.1290854719429625 
0.006433142432900875 
0.0007078572363728603 
0.05553169205139288 
0.0225434495928633 
3.489659635004638e-07 
0.001106583539775296 
0.001296598263780352 
0.04779894860091076 
0.003068867967920675 
1.175903954669307e-06 
0.001028608075727522 
0.009170845376680312 
0.02369926399832006 
0.001332074796650971 
0.02287969273391676 
0.009070867426711541 
0.08564582231849038 
0.0002410283370223752 
0.02479597203240995 
0.005782001781174251 
0.05783355090080584 
0.02162944392329656 
0.01438136321924128 
0.02956464606707419 
0.0997331733957951 
0.005315304944745643 
0.003612795768206459 
0.001611627998361482 
0.02654805213857978 
0.004664035628489543 
0.01338481327373309 
0.06093786315250082 
0.01487792475342137 
0.009805743892084346 
0.0003115990434913288 
0.001245197258676101 
0.002225178060121747 
0.002793342063152781 
0.00220557758603543 
0.002786046038085591 
0.01772677024483538 
0.003890321271192199 
0.001072954702081302 
0.001820199171861621 
0.07168962176062273 
0.08117713643672933 
0.01461324328814177 
0.004625185830808518 
0.001121040336577832 
0.0007554725981587954 
0.009317779367729304 
0.1162153509939287 
0.006872000871208023 
0.002290087110890771 
0.009435864870656164 
0.108230583787936 
0.025626442572249 
0.0001959512128401417 
0.03247593692224374 
0.07517954071777973 
0.00459775162171308 
0.004449833679299356 
0.003054556086626958 
0.002807138093817265 
0.001540205172268416 
0.01694546348542538 
0.007670449745904842 
0.002000267179544228 
0.04790941996108531 
0.08308214304783181 
0.02710496398027154 
0.1717950983276692 
0.003054777462418037 
0.002595236169292691 
0.003864916319823432 
0.009537700707092952 
0.005631961570658006 
0.007206686912542709 
0.004310433602237309 
0.008742957371072281 
0.01167689191725312 
0.05911557545353983 
4.071073148373411e-05 
0.01094579518394497 
0.003981674724440892 
0.002792832728074242 
0.008115047072603753 
0.005900336561291592 
0.03414115878400362 
0.001089012341867179 
0.0005028783513521315 
0.002206671846345192 
0.01599971762170994 
0.0008246736347298598 
0.004728480146307161 
0.0006507681511987091 
0.0008530539848916868 
0.04024305623260292 
0.01137892711565157 
0.04039121656138546 
0.003140083310827098 
0.02649333961300415 
0.001779076449911306 
0.008559083686186674 
0.05294243987744015 
0.004128344128768023 
0.02017188241696152 
0.04508655277004583 
0.0039155851436253 
0.0008155204328623264 
0.0007773382878367765 
0.0004899209807724329 
0.01095225559186126 
0.08011319860814159 
0.000179092649508594 
0.0005756542734769361 
0.006070730439503812 
0.05290960598168778 
0.05258180163444964 
0.0199565773577868 
0.00452098506021389 
0.02056656141321659 
0.004860022085221089 
0.0586237792390138 
0.1163062222578933 
0.009738612934461974 
0.0007420414635846253 
0.0004132894105800448 
0.01729844730173732 
0.0005084590020969965 
0.07199859529078971 
0.008152399300077304 
0.0008195414560982489 
0.006247174833543887 
0.005636157620711172 
0.08809678971236298 
0.08504654625122055 
0.004428989579445167 
0.008472057619248968 
0.01046457034446028 
0.05084487178380083 
0.0001168495802116819 
0.02240162221975841 
0.02445471013092946 
0.006151959924229475 
0.008453623355883204 
