solver_type L2R_L1LOSS_SVC_DUAL
nr_class 1
label 1
nr_feature 3236
bias -1
w
0.04151359155089423 
0.01490170801058157 
0.04834620805460008 
5.180716975575938e-05 
0.0487241029149784 
0.01152447892294007 
0 
0.01447855575581128 
0.03402105092032029 
0.05511433155190329 
0.01777002844996524 
0.02091668368545209 
0.004046918469094412 
0.001105876638294924 
0.002428198443079865 
0.05917550377756375 
0.005564239987546651 
0.04434091381678565 
0.008292425325488836 
0.01872609004005571 
0.00602428873237279 
0.00739210588311428 
0.02118185968160368 
0 
0 
0 
0 
0.01059071443424267 
0.003777595389836315 
0.04215757347268279 
0 
0 
0 
0.008032185336439438 
0 
0 
0 
0 
0 
0.02241942845284671 
0.002614575366518186 
0.0007544293039277323 
0 
0 
0 
0 
0.01871614781714091 
0 
0 
0 
0 
0.003667073050563885 
0.006207379138431759 
0 
0 
0 
0 
0 
0 
0 
0 
0 
0 
0 
0 
0 
0 
0 
0 
0 
0 
0 
0 
0 
0 
0 
0 
0 
0 
0 
0 
0 
0 
0 
0 
0 
0 
0 
0 
9.658432277354235e-05 
0 
0 
0 
0 
0 
0 
0 
0 
0 
0 
0 
0 
0 
0 
0 
0 
0 
0 
0 
0 
0 
0 
0 
0 
0 
0.1082058478973669 
0.05007200382870824 
0.1148904391263839 
0.1747121421609155 
0.08597470913645948 
0.03663764084684093 
0.03418187087093174 
0 
0.02429558551439388 
0 
0 
0 
0 
0 
0 
0 
0.006906270423681564 
0 
0 
0 
0 
0 
0 
0 
0 
0 
0 
0.0007210368277864045 
0 
0 
0 
0 
0 
0.002194105391854956 
0 
0 
0 
0 
0 
0.00988954774035343 
0 
0 
0 
0 
0 
0 
0 
0 
0 
0.006156628214117842 
0 
0 
0 
0 
0 
0 
0 
0 
0 
0 
0 
0 
0 
0 
0 
0 
0 
0 
0 
0 
0 
0 
0 
0 
0 
0 
0 
0 
0 
0 
0 
0 
0 
0 
0 
0 
0 
0 
0 
0 
0.00146182753997756 
0 
0 
0 
0 
0 
0 
0 
0 
0 
0 
0 
0 
0 
0 
0 
0 
0 
0 
0 
0 
0 
0 
0 
0 
0 
0 
0 
0 
0 
0.01154111585797951 
0 
0.01339144830321137 
0 
0 
0 
0 
0 
0 
0 
0 
0 
0 
0 
0 
0 
0 
0 
0 
0 
0 
0 
0 
0 
0 
0.01567458961494909 
0.0120620339945719 
0 
0 
0 
0 
0 
0 
0 
0 
0 
0 
0 
0 
0 
0 
0 
0.001646229544008896 
0 
0 
0 
0 
0 
0 
0 
0 
0.002244698735525241 
0 
0 
0 
0 
0 
0 
0 
0.008124398152701273 
0 
0 
0 
0 
0 
0 
0.01147566953239349 
0 
0 
0 
0 
0 
0 
0 
0 
0 
0 
0 
0 
0 
0 
0 
0 
0 
0 
0 
0 
0 
0 
0 
0 
0 
0 
0 
0 
0 
0 
0.009230970796868248 
0 
0 
0 
0 
0 
0 
0 
0.001254289892831027 
0 
0 
0 
0 
0 
0 
0.001509238977476186 
0 
0 
0 
0 
0 
0 
0 
0 
0 
0 
0 
0 
0 
0 
0 
0 
0 
0 
0 
0 
0 
0 
0 
0 
0 
0 
5.552143218467975e-05 
0 
0 
0 
0 
0 
0 
0 
0 
0 
0 
0 
0 
0 
0.001860894193774204 
0 
0 
0 
0 
0 
0 
0 
0 
0 
0 
0 
0 
0 
0 
0 
0 
0 
0 
0 
-2.168404344971009e-19 
0 
0 
0 
0 
0 
0 
0 
0 
0 
0 
0 
0 
0 
0 
0 
0 
0 
0 
0 
0 
0 
0.02016910567518854 
0 
0 
0 
0 
0 
0 
0 
0 
0 
0 
0 
0 
0 
0 
0 
0 
0 
0 
0 
0 
0 
0 
0 
0 
0 
0 
0 
0 
0 
0 
0 
0 
0 
0 
0 
0 
0 
0 
0 
0 
0 
0 
0 
0 
0 
0 
0 
0 
0 
0 
0 
0 
0 
0 
0 
0 
0 
0 
0 
0 
0 
0 
0 
0 
0 
0 
0 
0 
0 
0 
0 
0 
0 
0 
0 
0 
0 
0 
0 
0 
0 
0 
0 
0 
0 
0 
0 
0 
0 
0 
0 
0 
0 
0 
0 
0 
0 
0 
0 
0 
0 
0 
0 
0 
0 
0 
0 
0 
0 
0 
0 
0 
0 
0 
0 
0 
0 
0 
0 
0 
0 
0 
0 
0 
0 
0 
0 
0 
0 
0 
0 
0 
9.658432277354235e-05 
0 
0 
0 
0 
0 
0 
0 
0 
0 
0 
0 
0 
0 
0 
0 
0 
0 
0 
0 
0 
0 
0 
0 
0 
0 
0 
0 
0 
0 
0 
0 
0 
0 
0 
0 
0 
0 
0 
0 
0 
0 
0 
0 
0 
0 
0 
0 
0 
0 
0 
0 
0 
0 
0 
0 
0 
0 
0 
0 
0 
0 
0 
0 
0.006906270423681564 
0 
0 
0 
0.004054872088053094 
0 
0 
0 
0 
0 
0 
0 
0 
0 
0 
0 
0.006116009115944886 
0 
0 
0 
0 
0 
0.00102569003675167 
0 
0 
0 
0 
0 
0 
0 
0 
0 
0.003889670885232446 
0 
0 
0 
0 
0 
0 
0 
0 
0 
0 
0.01281551290664064 
0 
0 
0 
0.003889670885232446 
0 
0 
0 
0 
0 
0 
0 
0 
0 
0 
0 
0 
0.00102569003675167 
0 
0.0007210368277864045 
0.01330496545894948 
0 
0 
0 
0 
0 
0.006116009115944886 
0 
0 
0 
0 
0 
0 
0 
0 
0 
0 
0.0007831362260252742 
0 
0 
0 
0 
0 
0 
0 
0.006026422399249273 
0 
0 
0 
0 
0 
0 
0 
0 
0 
0 
0 
0 
0 
0 
0 
0 
0 
0 
0 
0 
0 
0 
0 
0 
0 
0 
0 
0 
0 
0 
0 
0 
0 
0 
0 
0 
0 
0 
0 
0 
0 
0 
0 
0 
0 
0 
0.001377004978003229 
0 
0 
0 
0 
0 
0 
0 
0 
0 
0 
0 
0 
0 
0 
0 
0 
0 
0 
0 
0 
0 
0 
0 
0 
0 
0 
0 
0 
0 
0 
0 
0 
0 
0 
0.04501020565119403 
0 
0 
0 
0 
0 
0 
0 
0 
0.006941028372080224 
0 
0 
0 
0 
0 
0 
0 
0 
0 
0 
0 
0 
0 
0 
0 
0 
0 
0 
0 
0 
0 
0 
0 
0.02483263128572682 
0 
0 
0 
0 
0 
0 
0 
0 
0 
0 
0 
0 
0 
0 
0 
0 
0 
0 
0 
0 
0.006020197957461193 
0 
0 
0.006207379138431759 
0 
0 
0 
0 
0 
0.01281551290664064 
0 
0 
0 
0 
0 
0 
0 
0 
0 
0 
0 
0 
0 
0.001105876638294924 
0 
0 
0 
0 
0 
0 
0 
0 
0 
0 
0 
0 
0 
0 
0 
0 
0 
0 
0 
0 
0 
0 
0 
0 
0 
0 
0 
0 
0 
0 
0 
0 
0 
0 
0 
0 
0 
0 
0 
0.03061056942623916 
0 
0 
0 
0 
0 
0 
0 
0 
0 
0 
0 
0 
0 
0 
0 
0 
0 
0 
0 
0 
0 
0 
0 
0 
0 
0 
0 
0 
0 
0 
0 
0 
0 
0 
0 
0 
0 
0 
0 
0 
0 
0.005911153060563654 
0 
0 
0 
0 
0.004397513097737139 
0 
0 
0 
0 
0 
0 
0 
0 
0 
0 
0 
0 
0 
0 
0 
0 
0 
0 
0 
0 
0 
0 
0.02890951168247718 
0 
0 
0 
0 
0 
0 
0 
0 
0 
0 
0 
0 
0 
0 
0 
0 
0 
0 
0 
0 
0 
0 
0 
0 
0 
0 
0 
0 
0 
0 
0.008340744508987023 
0 
0 
0 
0 
0 
0 
0 
0 
0 
0 
0 
0 
0 
0 
0.02739963549576943 
0 
0 
0 
0 
0 
0 
-2.168404344971009e-19 
0 
0 
0 
0 
0 
0 
0 
0 
0 
0 
0 
0 
0 
0 
0.004186896527305884 
0 
0 
0 
0 
0 
0 
0 
0 
0 
0.02170642675021266 
0 
0 
0 
0.003889670885232446 
0 
0 
0 
0 
0 
0 
0 
0 
0.008584409625043027 
0 
0 
0 
0 
0 
0 
0 
0 
0 
0 
0 
0 
0 
0 
0 
0 
0 
0 
0 
5.552143218467975e-05 
0 
0 
0 
0 
0 
0 
0 
0 
0 
0 
0 
0 
0 
0 
0 
0 
0 
0 
0 
0 
0 
0 
0.02239984649246243 
0 
0 
0 
0 
0 
0 
0 
0 
0 
0 
0 
0 
0 
0 
0 
0 
0 
0 
0 
0 
0 
0 
0 
0 
0 
0 
0 
0 
0 
0.02239984649246243 
0 
0 
0 
0 
0 
0 
0 
0 
0 
0 
0 
0 
0 
0 
0 
0 
0 
0 
0 
0 
0 
0 
0 
0 
0 
0 
0 
0 
0 
0 
0 
0 
0 
0 
0 
0 
0 
0 
0 
0 
0 
0 
0 
0 
0 
0 
0 
0 
0 
0 
0 
0 
0 
0 
0 
0 
0 
0 
0 
0 
0 
0 
0 
0 
0 
0 
0 
0 
0 
0 
0 
0 
0 
0 
0 
0 
0 
0 
0 
0 
0 
0 
0 
0 
0 
0 
0 
0 
0 
0 
0 
0 
0 
0 
0 
0 
0 
0 
0 
0 
0 
0 
0 
0 
0 
0 
0.001509238977476186 
0 
0 
0 
0 
0 
0 
0 
0 
0 
0 
0 
0 
0 
0.01468329193621627 
0 
0 
0 
0 
0 
0 
0 
0 
0 
0 
0 
0 
0 
0 
0 
0 
0 
0 
0.04090987572081119 
0 
0 
0 
0 
0 
0 
0 
0 
0 
0 
0 
0 
0 
0 
0 
0 
0 
0 
0 
0 
0 
0 
0 
0 
0 
0 
0 
0 
0 
0 
0 
0 
0.005195960785956381 
0 
0 
0 
0 
0 
0 
0 
0 
0.00146182753997756 
0 
0 
0 
0 
0 
0 
0 
0 
0 
0 
0 
0 
0 
0 
0 
0 
0 
0 
0 
0 
0 
0 
0 
0 
0 
0 
0 
0 
0.004397513097737139 
0 
0 
0.04090987572081119 
0 
0 
0 
0 
0 
0 
0 
0 
0 
0 
0 
0 
0.005859340637714699 
0 
0 
0 
0 
0 
0 
0 
0 
0 
0 
0 
0 
0 
0 
0 
0 
0 
0 
0 
0 
0 
0 
0 
0 
0 
0 
0 
0 
0 
0 
0 
0 
0 
0.0928611058810016 
0.06007322459264973 
0.1449171822016734 
0.2148695619866725 
0.2448879096792606 
0.5040086316278135 
0.1006660222397932 
0.1360829679481782 
0 
0.0003655433737238423 
0.06028527781772849 
0.0400724353030178 
0.01329339567202253 
0.004143502791867956 
0.04403550066278353 
0.04417421533047252 
0.02412566780858714 
0 
0.05917550377756375 
0 
0.005112443091278731 
0.006207379138431759 
0 
0.04432601001360734 
0.05632563224961589 
0.002614575366518186 
0 
0.01962596290340031 
0.01872609004005571 
0 
0.0246898529033491 
0.02452823530383129 
0.00829242532548884 
0.005419768168417438 
0.01871614781714091 
0.01777002844996524 
0.01225812815658854 
0 
0.0007544293039277323 
0 
0.03175062646981791 
0 
0 
0.003777595389836316 
0 
0.01236683615960204 
0.00168963790921019 
5.180716975575938e-05 
0 
0 
0 
0 
0 
0 
0 
0 
0 
0 
0 
0 
0 
0 
0 
0 
0.001441156247876423 
0 
0.007890089297184514 
0 
0 
0 
0.006554714428669724 
0.008016878602498537 
-1.084202172485504e-19 
0 
0.002457539279609644 
0.001271375200025281 
0 
0 
0 
0.01599033988746649 
0 
0 
4.336808689942018e-19 
0.004656597595134459 
0 
0.001377004978003229 
0.003898695527486068 
0 
0 
0.004896094124625881 
0 
0.01643276185546846 
0.003803451436680822 
0.0277985320600607 
0 
0.002194105391854956 
0 
9.658432277354582e-05 
0 
0 
0 
1.680513367352532e-18 
0 
0.001646229544008896 
0 
0.0007833296936015755 
0 
0 
0.01209092628222016 
0 
0 
9.658432277354235e-05 
0 
0 
0 
0 
9.658432277354235e-05 
5.180716975575938e-05 
0.00816575612586333 
0 
0.01418970088463509 
0.002607570609248897 
0 
0 
0 
0 
0 
0 
0 
0 
0 
0 
0.005694952426334596 
0 
0 
0 
0.003726689831389366 
0 
0.02104611327752888 
0 
0 
0.009074092120652624 
0 
0.005419768168417438 
0.04154829689700103 
0 
0.009412651252244466 
0 
0 
0 
0 
0 
0.003726689831389366 
-4.336808689942018e-19 
0.006906270423681564 
0.0007215066416909373 
0.002588946793600088 
0.0003436017554560021 
0 
0 
-2.168404344971009e-19 
0 
0.001441156247876423 
0 
0 
0 
0 
0 
0.003889670885232446 
0.004578230538084687 
0 
0.0003295030473526911 
0 
0 
0 
0 
0 
0 
0.004556264633469191 
0 
0 
0 
0 
0 
0 
0 
0.01041804223130977 
0 
0 
0 
0.0001666984863131491 
0 
0.0130547546243828 
0.00816575612586333 
0.006207379138431761 
0 
0.007920294279724996 
0 
0 
0 
0 
0 
0 
0 
-2.65121312490596e-19 
0.002614575366518185 
0.008938511173614029 
0.008002896745157733 
0.0005327832511400898 
0 
0 
0 
0 
0 
0 
0.007215272142441652 
0 
8.673617379884035e-19 
0 
0 
0 
0 
0.001502651879107019 
0 
0 
0 
0 
0 
0.005161644344838137 
0 
0 
0 
3.252606517456513e-19 
0 
0 
0.01599033988746649 
0 
0 
0 
0 
0 
0 
0.0007210368277864052 
0.01128774212327561 
0.001509238977476185 
0 
0 
-1.463672932855431e-18 
0.00137270939483137 
0 
0 
0 
0.06187195067713624 
0.009514800247802716 
0 
0 
0 
0 
0 
0 
0 
0 
0.003540121930491033 
0 
0 
0.01475579818884151 
0.02379034479429896 
0 
0 
0 
0.0009255465639728463 
0 
0 
-8.673617379884035e-19 
0 
0 
0 
0.02013481282807948 
0 
0 
0 
0 
0 
0 
0 
0 
0 
0 
0 
0 
0.007392105883114279 
0.001502651879107019 
0 
0 
0.006024288732372791 
0.007120560480306042 
0.001646229544008896 
0 
0.001377004978003229 
0 
0 
0 
0 
0 
0.002704154932022439 
0 
0.01029662906079622 
0 
0 
2.168404344971009e-19 
0 
0 
0 
0 
0 
0 
0 
2.168404344971009e-19 
0.0008983266248639326 
0 
0 
0.006906270423681564 
0.003905600432239073 
0 
0.01476614843864624 
0.00653688218578445 
0.0001666984863131491 
0 
0 
0 
0.002384125146229731 
0.01124858766857142 
0 
0 
0.01068054386589076 
0 
0 
0 
0.001105876638294921 
0 
0 
0 
0 
0 
0 
0 
4.336808689942018e-19 
0 
0 
0 
0 
0 
0 
0 
3.252606517456513e-19 
0 
0.003117774379878196 
0 
0 
4.336808689942018e-19 
0 
0 
0 
0 
0.001441156247876423 
0.002384125146229732 
0.002614575366518186 
0 
0 
0 
0 
0.0005327832511400898 
8.673617379884035e-19 
0 
4.336808689942018e-19 
0 
0 
0.0009255465639728463 
5.180716975575938e-05 
0.001271375200025281 
0 
0 
0 
0 
0 
0 
0 
0.00139624457577898 
0 
0 
0 
5.180716975575938e-05 
0.01430363860648578 
0 
0 
0 
0 
0 
0 
0.002614575366518186 
0 
0 
0.01016567526479163 
0 
0 
0 
0 
0 
0 
2.466559942404523e-18 
0 
0 
0.0003295030473526911 
0 
0 
0.008897636097214593 
0 
0.008557511981747043 
0 
0 
0.0003436017554560092 
0.01367594581676987 
0 
0 
0 
0 
0 
0.005694952426334596 
0 
9.658432277354235e-05 
0.01453200821829292 
0 
0.002270424450502375 
0 
0 
0.004397513097737141 
0 
0.03044015205351069 
0 
0 
0 
0.003803451436680823 
0.004886842776958843 
0 
0.0009255465639728463 
0 
0.003889670885232444 
0.001502651879107019 
0 
0 
0 
0 
0 
0 
5.552143218468192e-05 
0 
0 
-2.710505431213761e-19 
0 
0.0191447057709172 
0 
0 
-1.084202172485504e-19 
0.005195960785956381 
0 
0.000925546563972846 
0.0009255465639728454 
0.006554714428669724 
0 
0 
0.0182601445971718 
0.01445367933660763 
0 
-3.388131789017201e-20 
0.003858972868865501 
0 
0.01035816586535055 
1.301042606982605e-18 
0.001739846331234984 
0 
0.004995547523527369 
9.658432277354216e-05 
0 
0.01834987302745347 
0 
0.0208362395813067 
0.00168963790921019 
0.0001666984863131491 
0 
0 
0 
0 
0 
9.17381090517942e-05 
9.658432277354235e-05 
0 
9.658432277354235e-05 
0 
0.007634986455965362 
0.02547883298418163 
0.0003655433737238424 
0 
0.005694952426334596 
0 
0 
0 
0 
0 
0.005130348068890784 
0 
0.006099705824094032 
0.004979806275512427 
0.01172162431646906 
0.01982517993674989 
0.009377800322747799 
0.01300732212023162 
0 
0 
0 
0 
0.000925546563972848 
0.0001666984863131487 
0 
0 
0 
0 
0 
0.002509380960124841 
0.006906270423681564 
0 
0 
0.0005327832511400898 
0 
0.01597573096495239 
0 
0.002384125146229731 
0 
0.006207379138431759 
0 
0 
0.006554714428669723 
0 
0 
0 
0 
0 
0 
0.004086637860503692 
0.002457539279609644 
0 
0.006334966202273241 
0.007920294279724996 
0.0005327832511400898 
0 
0 
0.0189768878253162 
0 
9.173810905179398e-05 
0 
0 
0 
-1.761828530288945e-19 
0.001105876638294924 
0 
0 
0 
0 
0 
0 
0 
0.005915766281827298 
0 
0.003905600432239074 
0 
0 
0 
0.005851564069720682 
0 
0 
0 
0.005641914467934986 
0 
0 
0.01430363860648578 
0 
4.336808689942018e-19 
0.003312678551026345 
0.007517252150004972 
0 
0 
0.0137122689312143 
0 
0.003803451436680822 
0.002801141035065646 
0 
0.006156628214117841 
0 
0.01009246552407174 
0.003053560676527649 
0 
0 
0 
0.002457539279609644 
0 
0 
0 
0 
0.001105876638294924 
0 
-1.084202172485504e-19 
0.02379633460775702 
-1.084202172485504e-19 
0.0007336492336484646 
0.011973781510176 
0 
0.006156628214117842 
0 
0 
0 
0 
0 
0 
0.001980506132969451 
0 
0 
0 
0.001065214671004918 
0.00137270939483137 
0 
0 
0 
0.00197573968457494 
0.001647053205663785 
0 
0.03151721311003199 
0 
0 
0 
0 
0 
0 
0.0007336492336484641 
0 
0.0003436017554560017 
0.0005327832511400898 
0 
0.003905600432239073 
0 
0 
0 
0 
0.01342926489267157 
0 
0 
-1.084202172485504e-19 
0 
0.008776513662191289 
0 
0 
0 
0.004259473082529458 
0.0001666984863131491 
0.002614575366518186 
0 
0 
0 
0.007338044122271297 
0 
0 
0 
0.008280311011118367 
0.001065214671004918 
0 
0.0007333476116656024 
0.000532783251140089 
0 
0 
0 
0 
0 
2.168404344971009e-19 
0 
0 
0.02254505431613622 
0 
0 
9.173810905179398e-05 
8.911814514619051e-05 
0 
0.003803451436680822 
0 
0 
0.001697135102455846 
0 
0 
0 
0.007890089297184507 
5.552143218467932e-05 
0.01209092628222016 
0 
0 
0.02080088010096713 
0 
0.004186896527305882 
0 
0.005485365961367273 
0 
0.001042350647509715 
9.658432277354235e-05 
0 
0 
0.006554714428669724 
-4.336808689942018e-18 
0.003726689831389366 
0 
0 
0 
0 
2.710505431213761e-19 
0 
0 
0.0007210368277864045 
0.01827829108017022 
0.01337159406408612 
0.02201525319426612 
0.0007215066416909365 
0 
0.01633855928899819 
0.002422248307286938 
0 
0 
0.00791609960963929 
0 
0 
0.006207379138431758 
0 
0 
0 
0 
0.0003436017554560022 
0 
0.009118428445586448 
0.0112612125006395 
0 
0 
0 
0 
0 
0 
0 
0 
0 
0 
0 
0 
0 
-4.133520782600986e-18 
0 
0.01337851396835764 
0 
0 
0 
0.001441156247876423 
0 
0 
0 
0 
0 
0 
0.000532783251140089 
0 
0 
0 
0.01814970605072071 
0 
0 
0 
0 
0 
0 
0 
0.003905600432239074 
0 
0 
0.008165756125863332 
0.00168963790921019 
0 
0 
0 
0 
0.002795514547505114 
0.007791856516309481 
0 
0 
0 
0 
1.734723475976807e-18 
0.004469779571935992 
0 
0.00968866551571319 
0 
0 
0.001105876638294925 
0 
0 
0 
0.0004962015336658404 
0.009492696001271251 
0 
0 
0.001065214671004918 
0.002457539279609644 
0 
0 
0 
0 
0 
0 
0.001646229544008896 
0 
0 
0.0007333476116656024 
0.01531457069109363 
0.006207379138431759 
0 
0.01910906658209018 
0 
1.490777987167569e-19 
0 
-2.168404344971009e-19 
0 
0 
0 
0 
0.0003655433737238422 
0 
0.008172356339814337 
0.01003059145199733 
0 
-4.336808689942018e-19 
0.003026855737737431 
0 
0.03755619054868772 
0 
0 
0.03121026569245268 
0 
0 
0 
0 
0 
0 
0 
-4.336808689942018e-19 
0 
0 
0 
0 
0.0007831362260252746 
0 
0 
0 
0 
0.002607570609248896 
0.001042350647509713 
0 
0 
0.001600878247377972 
0 
0 
0 
0.001980506132969452 
0.003088773013486237 
0.008213910226291036 
9.173810905179398e-05 
0.007288363662318189 
0 
0 
0.0003436017554560027 
0 
0 
0.001377004978003228 
0 
0 
0 
-2.168404344971009e-19 
0 
0 
0 
0 
0 
-6.505213034913027e-19 
0 
0 
0.001473589300776771 
0 
0.002194105391854956 
0.009881848953640479 
0 
0 
0 
0 
0.02235545701049842 
0 
0 
0 
0 
0.001441156247876423 
0 
0.004086637860503692 
0 
0.006207379138431759 
0.008340744508987022 
0.01076726366966304 
0 
0 
0 
0 
0 
0.02759195685430868 
0 
0 
0 
0 
0 
0 
0 
0 
0 
-2.168404344971009e-19 
0 
0 
0 
0 
0 
0 
0 
0.005712230119659104 
0 
0 
0.002194105391854956 
-1.951563910473908e-18 
0 
0.007120560480306042 
0 
0 
0 
0 
0 
0 
0 
0 
0 
0.001638659889435014 
0 
0 
0.0187393634042403 
0 
0 
0 
0 
0 
0 
0.002377251838320205 
0.008891398270638336 
0.005419768168417438 
0.001271375200025281 
0 
0 
0.001646229544008896 
0 
0 
0 
0 
0 
0 
0.001624213221160099 
0 
0 
8.131516293641283e-19 
0 
0.004886842776958845 
0.0156653368917311 
0 
0 
0 
0 
0.003287471214048788 
0 
0 
0 
0 
0.03613851436201309 
9.658432277354191e-05 
0.004469779571935992 
0 
0 
0 
0.001271375200025281 
0 
0 
0.002607570609248897 
0.006063915183752834 
0 
0 
0.01210719080703088 
0.006207379138431759 
-5.421010862427522e-19 
0.001502651879107019 
0.003905600432239074 
0.003956505990686024 
0 
0.0005985231844084293 
0 
0 
0.03903167473119119 
0 
0 
0 
0.001488078537576196 
0.006905478753831585 
0.001105876638294924 
0.0009255465639728463 
0 
0 
0 
-1.680513367352532e-18 
0 
4.336808689942018e-19 
0 
0 
0 
0 
0 
0 
0 
0 
0 
0 
0 
0 
0 
0 
0 
0 
0 
0.0007210368277864045 
0 
0.001105876638294924 
0.002384125146229731 
0.002270424450502375 
0.002607570609248894 
0 
0 
0 
0.00739210588311428 
0 
0 
0 
0 
0.0001666984863131491 
0 
0 
0 
0 
0 
0 
0 
0 
0 
5.421010862427522e-20 
0 
0 
0.016233832107 
-5.421010862427522e-20 
0.005746520703376736 
0 
0 
0 
0 
0 
0 
0 
0 
0 
-2.818925648462312e-18 
0 
0 
-1.084202172485504e-18 
0 
0 
0 
0.003230417787911248 
0 
0.004469779571935992 
0 
0.001271375200025281 
0.006554714428669724 
0 
0.0007831362260252737 
0 
0 
0 
0.0159903398874665 
0 
0 
0 
0.007392105883114273 
0 
0 
0 
0.005170946265825228 
0.003889670885232446 
-4.336808689942018e-19 
0 
8.911814514619051e-05 
0 
0 
0 
0 
0.0009255465639728463 
0.001679975867900579 
0 
0 
0 
0 
0 
0 
0 
0 
0 
-1.084202172485504e-19 
0 
0 
0 
0 
0 
0 
0.001509238977476186 
0 
0 
0 
0.005694952426334595 
0.008845840843697843 
0 
0.009091302689836173 
0.001509238977476186 
0 
0.001661373843426721 
9.658432277354235e-05 
0 
0.003991580344521415 
0 
0.01599033988746649 
0 
0 
0.01182589471196407 
0 
0.008340744508987023 
0 
0 
0 
0 
0.001980506132969454 
0.006554714428669724 
0 
0 
0 
0.001509238977476186 
0.002714155366617917 
0.007634986455965362 
0.0007215066416909373 
0 
0 
0.006554714428669724 
0 
0 
0 
4.336808689942018e-19 
0 
0 
0 
0 
-3.469446951953614e-18 
0 
0.01357989317404022 
0.004469779571935992 
0 
0 
0.0009255465639728463 
0.001441156247876423 
0.005951070535291108 
0 
0.003984575587252124 
0.004397513097737139 
0 
0 
0 
0.02498693060570795 
0 
0.02547883298418163 
0 
0 
0 
0 
0.004186896527305884 
0 
0 
0 
0 
0 
0 
0.006905478753831586 
0 
0 
0 
0 
0 
0.01130536237372567 
8.673617379884035e-19 
0 
0 
0 
0 
0 
0 
8.911814514619051e-05 
0.007634986455965362 
0.011268536618358 
0 
0 
0 
0 
0 
2.168404344971009e-19 
0 
0.00168963790921019 
0 
0.000733649233648465 
0.0127684810410328 
0.006330706457254581 
0 
0 
0 
0 
4.336808689942018e-19 
0.005515635047207368 
0 
0.007972101449480755 
0 
0 
0 
0 
0.02809226819310121 
0.003873963237879492 
0 
0 
0 
0 
0.04652182817769178 
0.0007831362260252742 
0 
0 
0 
0 
0 
0 
0 
0 
0 
0 
0 
0 
0 
0 
0 
0.0007336492336484646 
0 
0.0007833296936015755 
0.002422248307286936 
0 
-3.252606517456513e-19 
0 
0.004845802084190537 
0 
0 
0 
0 
0 
0 
0.01962682319551166 
0.0005327832511400879 
0 
0.001778756054356386 
0 
0 
0 
0 
0 
0.005746520703376735 
0 
0 
0.008196469403325357 
0 
0 
0.0008227673787946564 
0 
0 
0 
0.003803451436680822 
3.252606517456513e-19 
0 
0 
0 
8.673617379884035e-19 
0.0009211277902408818 
0.008821954504949953 
0 
0 
0.002267873549828597 
0.001105876638294924 
0.02098657226764329 
0.0001666984863131483 
0.0007333476116656024 
0 
0 
0 
0 
0.006207379138431759 
0.000925546563972846 
0 
0 
0 
0 
0.05323475941038669 
0 
0.003905600432239074 
0 
0.003026855737737429 
0.0198276954368719 
0 
0.009917150728934527 
0 
0.0005327832511400898 
0 
0 
0 
0.001065214671004918 
0 
0 
0 
0.001471420012018767 
0 
0 
0 
0.002377877449324537 
0 
0 
0.005049606071194866 
0.007634986455965362 
0 
0.0007336492336484646 
0 
0.0007333476116655977 
0.008165756125863333 
0 
0 
0 
0 
0 
0 
0 
0 
0 
0.001681656318465508 
0 
0 
0 
8.673617379884035e-19 
0 
0 
0 
0.01466364226709647 
0 
0.0007831362260252733 
0 
0 
0.008168401131850581 
0 
0.006906270423681564 
0.002614575366518186 
0 
0.006554714428669724 
0.0002632828090866915 
0 
0 
0 
0.01581641761625014 
8.673617379884035e-19 
0 
0.0007833296936015777 
0 
0 
0 
0 
0 
0.0007225755617072764 
0 
0 
0 
4.336808689942018e-19 
-1.734723475976807e-18 
0 
0 
0 
0.0003655433737238423 
0 
0 
0 
0 
0 
0 
9.658432277354267e-05 
0.003905600432239074 
0 
0 
0 
0 
0.007068867582439771 
0.006207379138431759 
0 
0 
0 
0.002607570609248892 
0 
0.008067904378612623 
0.001646229544008896 
0 
0 
0.0001666984863131491 
0.01705682823017096 
0 
0.003726689831389366 
0 
0.005161644344838137 
0.009734829269986632 
0 
0.004469779571935993 
0 
0 
0.02864037853872595 
0 
0.0007333476116656024 
0.0007336492336484646 
0 
0 
0 
0.0003655433737238448 
0 
0 
0.01021855846033017 
0.01297321801696316 
0 
0 
0 
0 
0.003178576107396048 
0.0007210368277864045 
0.0006293675739136328 
0 
0 
0.001457874160113316 
0 
0.004469779571935991 
0 
-1.409462824231156e-18 
0 
8.673617379884035e-19 
0.001502651879107019 
0 
0 
0.006905478753831585 
0 
0 
0.003803451436680822 
0 
0.00127137520002528 
0 
4.065758146820642e-20 
0 
0 
0 
0.002384125146229731 
0 
0 
0 
0 
0 
0 
0 
0 
0.0007831362260252742 
0 
0 
-1.084202172485504e-19 
0 
1.301042606982605e-18 
0 
0 
0 
0 
0.03369388338444701 
0.007920294279724996 
0 
0 
0 
0 
0 
0.006226738579539476 
0.002148227285804642 
0.007396998127204161 
0.002422248307286941 
0 
5.552143218468062e-05 
0 
0 
0.001860894193774204 
0 
8.673617379884035e-19 
0 
0 
0 
0 
4.336808689942018e-19 
0 
0.006207379138431759 
-1.084202172485504e-19 
0 
0.01339829643351033 
0 
0.00354978432989564 
0 
0.001646583391759249 
0 
0.01661250347145379 
0 
0 
0.006906270423681564 
-2.168404344971009e-19 
0.00544930389655545 
0 
0 
0 
0 
4.336808689942018e-19 
3.252606517456513e-19 
0 
0.00016669848631315 
0 
0 
0 
0 
0 
0 
0.008340744508987025 
0.0008882051280040864 
-4.336808689942018e-19 
0 
0.003465480591880237 
0.0183259839706763 
0 
0 
0.0001666984863131491 
0 
0 
0 
0.00147358930077677 
4.336808689942018e-19 
0.001860894193774204 
0 
0 
0 
0 
0 
0 
0 
0 
0 
0 
0.009450764526112237 
0 
0 
0.004086637860503691 
0.007120560480306042 
0 
0 
0 
0 
0 
0 
0 
-4.336808689942018e-19 
0 
0 
0 
0.006994900506899268 
0 
0 
0.008012032388776793 
0 
0 
0 
0 
0 
0 
0.003726689831389367 
0 
0 
0.01002308335814026 
0.001441156247876423 
0 
0 
0 
0 
0 
0 
0 
0 
0 
0.001105876638294924 
0 
0 
0 
0.006156628214117842 
0 
0 
0 
0 
0 
0.006906270423681562 
0.002614575366518186 
0 
0 
0 
0 
2.168404344971009e-19 
0 
5.421010862427522e-20 
0 
0 
0.01917630339589255 
0 
0.004909328074975745 
0.0007210368277864052 
0 
0.01824745027982678 
0.009169289795187907 
0 
0 
0 
0 
0 
0.001505711787732551 
0 
-4.336808689942018e-19 
0.003803451436680822 
0 
0 
0 
0.01551221054774001 
0.02969967345733593 
0.003916653994511272 
0 
0.006448985066987004 
0 
0 
0 
0 
0 
0.002422248307286938 
0.004938649946714601 
0 
0 
0.01053504664878096 
0 
0 
0 
0 
8.673617379884035e-19 
0 
0 
0 
0 
0.005161644344838135 
0 
0.001532894356928217 
0 
-4.336808689942018e-19 
0 
0.006156628214117841 
0 
4.336808689942018e-19 
0 
0 
4.336808689942018e-19 
0.0008763850065960933 
0 
0 
0 
-4.336808689942018e-19 
0 
0 
0.01088924052939111 
0 
0 
0 
0 
0 
0 
0 
0 
0 
0 
0 
0 
0.0115246573411978 
0 
0.007920294279724996 
0 
0 
0 
0 
0.008415509401157753 
0 
0 
0 
0.01304865609334077 
0 
0 
0.002194105391854956 
0.007632290263628442 
0 
0 
0 
0 
0 
1.084202172485504e-19 
0 
0 
0.003119651955827802 
0.007901700803121491 
5.552143218468019e-05 
0.02069799630193483 
0 
0 
0 
0 
0.0005985231844084293 
0 
0 
0.001502651879107019 
0 
9.173810905179312e-05 
0 
0 
8.911814514619051e-05 
0 
0 
0 
0 
0 
0 
0 
0.003726689831389366 
0 
5.090555844694959e-05 
0 
0 
0.009834908829861058 
0.001502651879107019 
0 
0.0006747379340880404 
0 
0 
0.001377004978003229 
0 
0.0009255465639728463 
0.0007336492336484646 
0.01128774212327561 
0 
0 
0 
0 
0 
0.01465677214936105 
0 
0 
0 
1.084202172485504e-19 
5.552143218467975e-05 
0.001105876638294925 
0 
0 
0 
0 
9.173810905179753e-05 
0 
0 
0 
0.003889670885232446 
0 
0.004086637860503692 
0 
0 
0 
0 
0.001689637909210194 
0.02547883298418163 
0 
0 
0 
0.003805203421083094 
0 
0.002607570609248896 
0.008016878602498539 
0 
0.005694952426334596 
